// adjective_model_larger256_4_weights.cpp
// Auto-generated weight data for embedded inference
// This file contains all model weights as C++ arrays

#include <cstddef>

namespace embedded_ml {


// Weight tensor 1: arith.constant
// Shape: [256]
// Elements: 256
static const float weight_0_arith_constant[256] = {
  0.142903462,  0.039991271,  -0.053056072,  -0.099402256,  0.032392830,  -0.085975952,  0.098655887,  -0.059649576,
  -0.124152333,  0.098472208,  -0.063753761,  -0.053010195,  0.102331057,  0.064532980,  0.063592039,  0.156451508,
  0.020211184,  -0.086596519,  0.082347974,  -0.082925543,  0.021864014,  -0.067082763,  0.045091100,  -0.078735299,
  -0.077536114,  -0.151643693,  -0.054748401,  -0.015060865,  0.102658145,  -0.016199414,  -0.050249826,  0.011228397,
  -0.061182749,  -0.094156854,  -0.001159561,  -0.034726929,  0.119955972,  0.119512096,  0.104083605,  -0.095485918,
  -0.041627474,  -0.079237275,  -0.194012299,  -0.129753366,  0.083061829,  0.102922209,  0.243871152,  -0.035740409,
  -0.022749349,  -0.061856680,  0.213683739,  0.106303833,  0.246679619,  0.233671352,  0.151721522,  -0.036153559,
  -0.029026354,  -0.057595886,  0.097771168,  0.035275161,  0.051628381,  -0.148884341,  -0.049917955,  -0.121770322,
  -0.088688999,  -0.033426445,  0.050380036,  0.091588631,  -0.037592724,  -0.038757171,  0.145553827,  -0.023411922,
  0.051456138,  -0.001271485,  0.095947675,  0.036006369,  -0.054895110,  0.147304893,  0.040783361,  -0.023108134,
  0.053430960,  -0.068473622,  -0.054897055,  0.069121972,  -0.043607119,  0.096521951,  -0.057345361,  -0.070209682,
  -0.001133486,  -0.090738557,  0.109375440,  0.162761196,  -0.034170277,  -0.064203762,  -0.013505427,  -0.161836684,
  -0.017646270,  -0.062165201,  0.125121579,  -0.004317943,  -0.054181281,  0.186967894,  -0.079257734,  -0.045401782,
  -0.034473009,  0.125711739,  -0.078681633,  0.148393452,  -0.002714943,  -0.008116888,  0.049092878,  0.014174128,
  0.106726617,  0.035208829,  -0.074975573,  -0.330869287,  0.045347426,  0.017070208,  -0.016345277,  0.038610093,
  -0.061467934,  0.070630603,  0.070308052,  0.037283581,  0.080757521,  -0.020003675,  -0.048312075,  -0.054970499,
  -0.050058879,  0.062242195,  -0.078187704,  -0.000960210,  -0.009892470,  -0.099507779,  0.151509821,  0.034709394,
  -0.068190604,  -0.037233282,  0.079076052,  0.092012309,  0.001663197,  0.015745487,  -0.005744190,  0.020718480,
  0.117097981,  -0.034524240,  -0.051056962,  0.114753500,  0.142249495,  0.091722988,  0.083677188,  0.057362288,
  0.095041223,  -0.058833033,  -0.111918822,  0.175058633,  -0.007272300,  -0.000417657,  0.066005714,  0.160125509,
  0.008512473,  -0.090407193,  0.121240363,  0.060249638,  -0.065678537,  0.106775619,  -0.043792356,  0.182170972,
  0.149220288,  -0.008321073,  0.131759524,  0.182050169,  -0.017327273,  0.167213202,  0.054112874,  -0.067195080,
  -0.051285367,  0.082668625,  -0.042947177,  0.030625729,  -0.117228866,  0.156157508,  0.177442297,  -0.056933392,
  0.110999435,  0.009954799,  -0.025083898,  0.010033620,  0.079974234,  -0.118972301,  -0.061774790,  -0.003107977,
  0.050589297,  0.054000281,  0.054970395,  -0.059296474,  0.097173184,  0.096579157,  0.007814732,  0.139056101,
  0.092868246,  -0.061963253,  0.071497038,  0.035472129,  0.080179960,  -0.063362375,  -0.009649308,  0.045424905,
  0.120601960,  -0.015770284,  -0.035504662,  -0.084199466,  0.044442419,  0.120577484,  -0.084181726,  0.085896455,
  -0.043323088,  -0.072010770,  -0.042938173,  -0.087274209,  -0.078258157,  0.052157253,  -0.018280191,  0.039299279,
  0.030132851,  -0.036877446,  -0.015271683,  -0.084143788,  -0.052236199,  -0.096566334,  0.020687226,  0.066754743,
  -0.087313600,  0.010548005,  0.054692846,  0.101217896,  -0.019189989,  -0.065111659,  -0.043564424,  -0.091343313,
  0.128838211,  -0.140833765,  0.129561573,  0.094543912,  0.063876055,  -0.214924082,  -0.050864283,  0.011718308,
  0.067283668,  0.099196114,  -0.095688477,  0.072131790,  0.142622977,  0.014466361,  0.015746871,  -0.018483132

};


// Weight tensor 2: arith.constant1
// Shape: [256]
// Elements: 256
static const float weight_1_arith_constant1[256] = {
  -0.138711140,  -0.020269953,  0.155314818,  -0.433020264,  -0.262625158,  -0.015250601,  -0.107001603,  0.057408005,
  0.036747929,  0.002764903,  0.000456855,  -0.026211977,  0.025122689,  -0.166055888,  0.061174296,  0.041526929,
  -0.275970429,  -0.096712381,  -0.113893241,  0.059784450,  0.023753405,  -0.147733018,  -0.018793251,  0.039825138,
  -0.079812095,  -0.053572543,  -0.391070068,  0.144134223,  0.035497483,  0.048477903,  -0.073734470,  0.083163776,
  -0.057424545,  -0.204332888,  0.049647950,  -0.046890005,  -0.091936640,  0.178329274,  0.069582842,  0.082532480,
  0.025459435,  -0.063442834,  0.076507255,  -0.180415034,  0.093782865,  0.108190745,  -0.222555041,  0.080482364,
  -0.032238230,  0.073422670,  0.189323679,  0.046714693,  0.141060978,  -0.054055724,  0.114417553,  -0.019252488,
  -0.034706373,  0.006046178,  -0.043360885,  -0.075525373,  -0.110705517,  0.068126522,  -0.050296184,  0.039940920,
  -0.031182826,  0.277218968,  -0.039011676,  -0.164473131,  -0.090744063,  0.099757634,  -0.350445151,  0.088004574,
  0.113062464,  0.132144362,  0.032706495,  -0.094745725,  0.073586583,  -0.023317911,  0.043274380,  0.037882950,
  -0.035339192,  -0.020339470,  -0.017086048,  0.094221510,  -0.292350262,  0.058875870,  -0.116730712,  -0.003286463,
  0.050959997,  0.065066881,  -0.058380224,  0.030105889,  -0.043545082,  0.080154210,  -0.220995620,  0.044194005,
  0.132833615,  0.187300220,  0.079411514,  -0.056542899,  0.002860482,  0.101776183,  0.024786582,  -0.053611815,
  -0.080455855,  0.155637100,  0.139364555,  0.107271008,  -0.036905322,  0.040515356,  -0.067429632,  0.091183186,
  -0.141343027,  -0.069915511,  0.051170640,  -0.106699608,  -0.033246905,  0.029850708,  -0.060831867,  -0.060727693,
  -0.041105341,  0.205033720,  0.175776005,  0.135937214,  -0.119900629,  0.004862961,  -0.044307839,  0.074467354,
  -0.148983493,  -0.041229017,  -0.143958569,  0.062274266,  0.169639602,  -0.003782767,  -0.275361240,  -0.027941985,
  -0.085467786,  0.035136454,  0.063746840,  0.134636745,  -0.062437903,  -0.094576798,  -0.097829312,  0.024790419,
  0.095500723,  -0.055511303,  -0.199815825,  0.049213316,  0.085547730,  0.129936606,  -0.064300045,  0.041650217,
  -0.058318291,  -0.080314174,  0.094867691,  0.057416871,  -0.022619875,  0.043406967,  -0.101929560,  -0.021769024,
  0.015056988,  -0.060910806,  0.133473948,  0.247011125,  0.176059127,  0.028400429,  -0.136889353,  0.107677959,
  0.026201492,  0.143634334,  0.038018614,  0.019507295,  -0.071656361,  -0.052934565,  0.031258874,  -0.026840715,
  -0.038010489,  -0.014096964,  -0.450305730,  0.005002907,  -0.151444316,  -0.044241168,  -0.235754937,  0.088424981,
  -0.139238939,  0.160423532,  -0.006714788,  -0.055616930,  0.045065131,  0.036904711,  0.127445385,  0.000774580,
  -0.166511744,  -0.038362946,  0.031612687,  -0.059812639,  -0.066635005,  -0.072577283,  -0.075204536,  0.009718668,
  0.071314819,  0.097896136,  -0.056458805,  -0.061413798,  0.112682335,  0.076353140,  0.011202946,  0.068054937,
  -0.050693501,  -0.268491596,  -0.070917010,  -0.086642653,  0.176641285,  0.105273567,  -0.090165913,  -0.098443814,
  -0.090814196,  0.122243479,  0.094941646,  -0.074816048,  -0.073613293,  -0.037304718,  -0.269079715,  -0.089935437,
  -0.110870212,  -0.131570444,  -0.048766971,  0.028187022,  -0.001047355,  0.111856654,  0.123604782,  -0.177004665,
  0.029381666,  0.049043413,  0.039957426,  -0.080885790,  0.079541594,  -0.050374534,  0.091778561,  -0.041310713,
  0.064677350,  -0.101483166,  -0.138369098,  -0.026245700,  0.051348064,  -0.096511714,  -0.425013959,  0.003107060,
  0.000119396,  -0.039993379,  -0.044221550,  -0.048556179,  -0.141572759,  -0.141270787,  0.171090513,  0.011570096

};


// Weight tensor 3: arith.constant2
// Shape: [256]
// Elements: 256
static const float weight_2_arith_constant2[256] = {
  -0.082082853,  -0.046926495,  -0.056783393,  -0.009869669,  0.035067037,  -0.046383683,  -0.010524048,  -0.047903609,
  -0.031822372,  -0.088625453,  -0.086197212,  -0.066491008,  -0.017406486,  0.100274764,  -0.164624587,  -0.035490014,
  -0.056677874,  0.037381362,  -0.088062309,  -0.031788796,  -0.049297009,  -0.022742961,  -0.017102093,  -0.063007995,
  0.071591467,  -0.056234811,  -0.041921012,  -0.022961421,  0.005405862,  -0.050558265,  -0.059199221,  -0.229261354,
  0.024295211,  0.064044841,  -0.136117890,  -0.052890878,  -0.016178288,  0.083785817,  0.079980917,  -0.049678288,
  -0.051205039,  -0.059135351,  -0.037389949,  -0.051024273,  -0.075815246,  -0.072238587,  -0.068349630,  0.060318809,
  0.037864745,  -0.002485187,  0.010241563,  -0.117002405,  -0.083158165,  -0.118804775,  -0.081838273,  -0.086074673,
  -0.025403438,  -0.004693551,  -0.141723081,  -0.018005304,  -0.014867875,  -0.091350101,  0.021986863,  0.018564763,
  -0.070197418,  0.023928862,  -0.032775078,  -0.141191885,  -0.020850198,  -0.250543565,  -0.104535833,  -0.003170043,
  -0.101593383,  0.003710953,  -0.154074848,  0.005527101,  0.078762516,  -0.009207152,  -0.030248182,  -0.085311741,
  -0.056439839,  -0.030923003,  -0.076087020,  -0.054186027,  0.025305137,  -0.045075241,  -0.164452240,  -0.018482981,
  0.033339668,  0.030837785,  0.049658962,  -0.045442317,  -0.035108820,  -0.038545646,  0.052363329,  -0.066083044,
  -0.150794983,  -0.049683057,  -0.058876820,  -0.018647186,  -0.061586734,  -0.108815156,  -0.054047722,  -0.045619838,
  -0.080540232,  -0.020432692,  -0.044948004,  -0.076645739,  -0.073540628,  -0.088169768,  0.000264832,  -0.027650643,
  0.007281802,  -0.114283264,  0.046702255,  0.000979535,  -0.067434199,  -0.001375277,  0.005095737,  -0.098238774,
  0.074336052,  0.021654606,  0.063605681,  -0.044925459,  -0.073764205,  0.026539756,  -0.013610269,  -0.089004487,
  -0.049945954,  0.038021941,  0.036184922,  -0.179044396,  -0.029725960,  -0.038719725,  -0.029117668,  0.063750163,
  -0.073067188,  -0.056003824,  -0.056729961,  0.015883429,  0.055240110,  -0.122110695,  -0.127659410,  -0.033309311,
  -0.008909565,  -0.036727984,  -0.012600352,  0.013827640,  -0.054179542,  -0.108952835,  0.048811942,  0.042772043,
  -0.083914571,  -0.195127934,  0.041949335,  -0.026670797,  -0.002570742,  0.046920229,  -0.161087155,  -0.138706222,
  -0.016901394,  -0.155008540,  -0.029404059,  -0.014600224,  0.005878917,  0.016331317,  -0.080157340,  0.032272883,
  -0.023046821,  -0.052225258,  -0.060324628,  -0.009710751,  -0.034802094,  -0.200301439,  0.082081340,  0.002515258,
  -0.040784094,  0.012201083,  0.039292648,  -0.081120186,  -0.121183336,  -0.040491953,  -0.030533440,  -0.129315883,
  -0.051735386,  -0.103512570,  -0.008342359,  0.076077230,  0.101383336,  0.045125615,  -0.048159182,  -0.039810386,
  -0.046140291,  -0.037815712,  -0.105958529,  -0.070200421,  -0.098240465,  -0.021665057,  -0.008334307,  -0.082289830,
  -0.046717163,  -0.105608635,  -0.042541116,  -0.088536873,  -0.025193743,  -0.015646541,  0.082457036,  -0.026323697,
  -0.037853256,  -0.044486776,  -0.098842800,  0.025082605,  -0.052423593,  -0.035913765,  -0.104016945,  -0.041315220,
  -0.025139002,  -0.047561206,  0.008479443,  0.052312043,  -0.059475489,  0.100457005,  0.059450809,  -0.070743173,
  -0.038581368,  -0.084308796,  -0.085925378,  -0.067178018,  -0.017236095,  -0.139351249,  0.030641295,  0.022778492,
  -0.013289505,  0.001503359,  -0.045573473,  0.011059549,  0.051242139,  0.037250474,  -0.040274505,  -0.015174883,
  0.030980544,  -0.035924312,  0.045971002,  -0.123122238,  -0.074060164,  -0.021623325,  -0.050185271,  0.057281412,
  -0.055147085,  -0.061310049,  -0.003578617,  -0.105098315,  0.061802149,  -0.081261016,  0.118603684,  0.006590036

};


// Weight tensor 4: arith.constant3
// Shape: [28]
// Elements: 28
static const float weight_3_arith_constant3[28] = {
  -0.546462536,  0.056068588,  -0.059292167,  0.016103888,  0.090661518,  0.089089818,  -0.037181225,  0.023226507,
  0.031735580,  0.102867804,  -0.264069259,  -0.182888523,  -0.023066286,  -0.063496552,  0.127258331,  -0.077280775,
  -0.067575522,  -0.380602151,  0.159539744,  0.109312162,  0.050002702,  -0.002138422,  -0.147785187,  -0.064503655,
  -0.101845883,  -0.173726737,  -0.183001146,  -0.142316341
};


// Weight tensor 5: arith.constant4
// Shape: [28, 256]
// Elements: 7168
static const float weight_4_arith_constant4[7168] = {
  -0.833773017,  -0.622380853,  0.053958271,  -0.047365505,  -0.569995761,  -0.048705272,  -0.406477928,  0.051557321,
  -1.141529560,  -0.504934251,  0.095101483,  -0.041400947,  -0.235192329,  -0.715920568,  -0.109918028,  -0.295788884,
  -0.477243334,  0.107493833,  -0.234939784,  0.037398223,  -0.858880699,  -0.347966105,  -0.510078371,  -0.045490634,
  0.039614271,  -0.067537218,  0.124752924,  -0.308976978,  -0.601158857,  -0.118848488,  -0.096534930,  -1.602229476,
  -0.134775266,  -0.039528660,  -1.067019343,  -0.260534555,  -1.292515039,  -0.373690426,  -0.669835091,  0.013088138,
  0.070138685,  0.000245144,  -0.055389225,  -0.459877849,  -1.551735401,  -0.703369856,  -2.743653536,  -0.545211554,
  0.092525139,  0.037073243,  -2.126713276,  -0.429750621,  -0.635517120,  -0.656461477,  -0.445544064,  -0.710448503,
  0.053186528,  -0.166069642,  -0.696688414,  -0.375993878,  -0.277503431,  -0.151220366,  0.112723097,  -0.173480436,
  -0.211352602,  -0.477919132,  -0.892396510,  -1.047637343,  -0.073930226,  -0.047864027,  -0.482724756,  -1.025278807,
  -2.967360497,  -0.039013270,  -0.887904882,  -0.740199029,  -0.429770231,  -0.472917944,  -0.486636311,  -0.916544378,
  -0.248237222,  0.114752509,  -0.075157523,  -1.537266254,  -0.649070144,  -0.303201765,  -0.296816736,  -0.175394073,
  -0.322326332,  -0.002882144,  -0.482234567,  -2.103651047,  -0.002613176,  -0.430703461,  -0.213387743,  -0.213499114,
  -0.714619219,  -0.152138412,  -0.870746076,  -1.073940396,  -0.068559743,  -0.773288667,  0.011580569,  -0.128724098,
  -0.033521719,  -0.893059492,  0.021621058,  -2.339792967,  -0.458153963,  0.024699651,  -1.468151808,  -0.278439105,
  -0.500055909,  -0.150918886,  -0.044293087,  -0.041746296,  -2.480407953,  -0.589028180,  -0.163579836,  -0.420125991,
  -0.031242678,  -0.289470047,  -0.388835549,  -2.415970087,  -0.725125968,  -0.370773017,  -0.260831416,  -0.393668950,
  0.104034357,  -0.450054109,  0.057013594,  -0.180855259,  -0.484060735,  0.003250311,  -0.391018420,  -0.438946426,
  -0.837672412,  -0.475923777,  -0.952683806,  -1.082826614,  -0.188521832,  -0.336272806,  -0.331974208,  -1.265329719,
  -0.290298194,  -0.316558033,  -0.056854706,  -0.383392960,  -0.475465387,  -1.364576101,  -0.413075149,  -0.309731930,
  -0.428591222,  0.093293346,  0.017614506,  -0.221525148,  -0.081098363,  -0.261283278,  -0.558926165,  -0.604007363,
  -0.796956122,  0.066783331,  -0.393061191,  -0.580031216,  0.070654482,  -0.457093328,  -0.194596529,  -1.036365032,
  -0.399862438,  -0.618399203,  -0.277794451,  -0.525583804,  -0.334560573,  -2.216172934,  -0.169425175,  -0.139117390,
  -0.144404605,  -0.290234715,  0.044096153,  -0.764629960,  -0.335381031,  -0.574589431,  -0.375358641,  -0.039229460,
  -0.632424653,  -0.127265379,  0.056971688,  -0.241727114,  -0.278954566,  -0.497605771,  0.028726289,  -2.153803825,
  -0.224948376,  -2.461395025,  -0.249739036,  -0.053286608,  -1.065235972,  -0.221988603,  -0.610697448,  -0.786383867,
  -0.599861443,  -0.775654852,  -0.648775816,  -1.053079486,  -0.202606380,  0.059247259,  -1.268745661,  -0.158120677,
  -0.391005516,  -0.301640928,  -0.403780967,  -0.030174628,  -0.127371266,  -1.005440593,  -0.134086207,  -2.665132999,
  0.077403694,  0.111667782,  0.063169599,  -0.076099232,  -0.052622788,  -0.609464347,  -0.423662126,  -1.241174459,
  -0.210542127,  0.130673051,  -0.287038773,  -0.025973376,  -0.168648452,  -0.066798910,  -0.257449895,  -0.447861135,
  -0.376458973,  -0.799592555,  -0.388435692,  -0.441893727,  -0.139492646,  -0.003060561,  -0.051458787,  -0.304572165,
  -0.825990319,  0.101737544,  -0.814630568,  -0.823427677,  -0.493120193,  -0.021475526,  -0.244105369,  -0.851275742,
  -0.316983342,  -2.155339241,  0.016462233,  -0.399671823,  -1.286565661,  -0.355542094,  -0.989752471,  -0.614938796,
  0.121190868,  0.153041050,  0.094257243,  0.065792561,  0.072109863,  -0.980910182,  -0.085917644,  -0.107198834,
  0.022438170,  -0.045295045,  -0.192696676,  0.025808053,  0.054491680,  0.067415610,  -0.086046115,  0.112281732,
  0.090273276,  -0.106026351,  0.032336276,  0.122243226,  -0.720677197,  0.043166652,  -0.004901369,  -0.259954005,
  -0.085767888,  -0.326656371,  -0.009096848,  -0.183141634,  -0.270430386,  0.079133891,  -0.071363792,  -0.173110947,
  -0.147563741,  -0.060966372,  -0.289723456,  0.032412261,  0.057507288,  0.070661925,  -0.215831086,  0.011393505,
  -0.015485578,  -0.064819373,  -0.086005852,  -0.157722205,  -0.010924618,  0.016888719,  0.254472136,  -0.021215692,
  0.086888149,  -0.044726990,  0.116815440,  0.093891233,  0.077777669,  0.222888082,  0.155520409,  0.037545923,
  -0.043129552,  0.017106464,  -0.022161009,  0.021028457,  -0.044744629,  -0.148302779,  -0.109406084,  0.004262338,
  0.009121572,  0.012321047,  -0.082080051,  0.062148347,  -0.133787930,  0.048888799,  0.080297768,  -0.017787242,
  0.117097810,  0.060978282,  -0.043078583,  0.103692658,  0.119931094,  0.081785753,  0.105388321,  -0.026439352,
  0.162656739,  -0.093155257,  0.112682261,  0.081863850,  -0.043038834,  0.111634836,  -0.199926332,  0.120186470,
  -0.297565967,  0.010456532,  -0.140137583,  -0.048189607,  -0.059442107,  -0.027325848,  -0.031143021,  -0.021880701,
  0.083192296,  -0.132023126,  -0.101332359,  -0.012394598,  -0.061084837,  -0.205807939,  -0.106722660,  -0.076938450,
  0.061910726,  0.134680435,  -0.038969282,  0.093142316,  0.111049414,  -0.232302815,  -0.099139720,  0.048441444,
  0.153704807,  0.111556530,  -0.142012358,  -0.204458699,  0.109525539,  0.024646757,  0.079424344,  0.082421444,
  -0.153119043,  0.015135375,  -0.081753038,  -0.023257526,  -0.341479748,  0.073764890,  0.074909948,  -0.214644760,
  -0.022656344,  0.012026915,  -0.061150238,  -0.424069107,  0.080927566,  0.028376652,  0.120944500,  0.072223082,
  -0.035813015,  -0.129684970,  -0.044499043,  0.048672248,  0.011647558,  0.056755692,  0.021571582,  0.108235464,
  0.095012873,  0.106488325,  0.119310267,  0.144729257,  0.127819523,  0.031542182,  0.188659102,  0.070598520,
  0.085233115,  0.099407822,  -0.054776188,  0.011406719,  0.076685213,  0.105472498,  0.172753781,  0.060894992,
  -0.018627709,  0.087062828,  0.177208915,  -0.005666763,  0.106076553,  -0.171479926,  -0.019213088,  0.121440865,
  0.267605633,  0.071744889,  0.006643727,  0.105260178,  0.057951599,  -0.577762663,  -0.448987186,  -0.183891118,
  0.031172667,  0.097239226,  -0.052868571,  0.044661239,  0.141989529,  -0.132052287,  0.166607693,  -0.096396849,
  0.024250640,  -0.129378244,  0.106219724,  0.097677872,  0.059560604,  0.028366450,  0.075481668,  -2.265689611,
  0.051734727,  -0.137718096,  0.069755226,  0.085695758,  0.026146064,  -0.113363750,  -0.156312555,  -0.010131667,
  0.164988950,  0.005029109,  0.091217175,  0.000925740,  -0.083607204,  0.116827905,  -0.198917583,  -0.124879643,
  0.249643266,  0.055467214,  0.041364864,  0.124268882,  0.035965987,  0.052083634,  -0.018442269,  -0.026322581,
  -0.025935588,  0.059654776,  -0.125564083,  -0.024843169,  -0.103343390,  0.119579822,  0.046600170,  0.067975029,
  0.062297605,  -0.080407485,  -2.588756084,  -0.055268712,  -0.027897267,  -0.161005378,  -0.158397228,  0.039824329,
  0.050827134,  -0.024806840,  0.010947394,  0.077221096,  -0.138948575,  -0.088942505,  -0.017135451,  -0.273116946,
  -0.230804622,  -0.027073897,  0.173733711,  0.069456823,  0.022631261,  0.164480373,  0.088360459,  -0.008110588,
  0.107649386,  -0.062937357,  -0.136800900,  0.072010674,  0.274086982,  -0.141837046,  -0.034686793,  -0.032807421,
  0.093917497,  -0.120149009,  0.027861703,  -0.090005301,  0.023275122,  -2.142703772,  -0.158621013,  -0.220995769,
  -0.286640614,  0.022752821,  0.023816669,  -0.070252717,  -0.473604262,  -0.055105750,  -0.033682566,  -0.164824739,
  -0.090173610,  -0.098279014,  -0.074027978,  0.142506704,  0.159545779,  -0.061538573,  -0.031339280,  -0.206411138,
  -0.220202133,  0.080371290,  -0.010206904,  -0.446175069,  -0.138659850,  -0.374358833,  -0.098534226,  -0.064943358,
  -0.095595032,  0.058802042,  0.211146742,  0.210444137,  -0.679490745,  0.067153543,  0.085047007,  -0.040683683,
  0.029971490,  -0.068361938,  -0.076400578,  -0.656434119,  -0.272079587,  0.015941715,  -0.015010322,  -0.080764629,
  -0.127743140,  0.044541448,  0.259714931,  -0.210106879,  0.207755327,  0.170497194,  0.032408129,  -0.009541758,
  -0.000644091,  -0.068230689,  -0.101112626,  -1.099725723,  0.071130805,  -1.969111323,  -0.032964453,  -0.152513549,
  -0.033571571,  0.042586155,  -0.157474414,  -0.314416438,  -0.078716755,  0.088824220,  -0.321666509,  0.216087714,
  0.150299251,  -0.136728600,  -0.127284065,  0.158643901,  -0.198279962,  0.042722642,  0.192729279,  0.149645224,
  0.099394962,  -0.023434950,  -0.052782863,  0.061627120,  0.248940036,  -0.267744005,  -0.007071405,  -0.480248004,
  -0.175829679,  -0.178355351,  -0.041693881,  -0.571341693,  -0.106678709,  0.011032826,  0.056962609,  0.065583579,
  0.174029499,  0.046787761,  -0.038290907,  -0.058349021,  -0.073000409,  -0.182632476,  -0.061692629,  -0.030143812,
  -0.008333304,  0.071650565,  -0.101798475,  0.115946978,  -0.039208237,  0.074905917,  -0.191503048,  -0.097163759,
  0.119256325,  -0.758227646,  -0.096626185,  -1.779500127,  -0.349637747,  0.123267107,  0.124106303,  0.112451375,
  -0.326126754,  -0.106023468,  -0.099336021,  -3.899607420,  -0.615109146,  0.110093728,  0.017016709,  -0.438191265,
  -0.168578178,  0.125290722,  -0.221804798,  0.045374744,  0.045342401,  -0.242336407,  -0.151541457,  -4.056692600,
  -0.040756777,  0.094648071,  -0.008209542,  -1.731233120,  0.062911063,  -0.564968944,  -0.023376582,  -0.444532245,
  -0.224754035,  -0.365349710,  0.119450919,  -0.160030395,  -0.108542994,  -0.076210044,  0.093325056,  0.065298125,
  0.002412499,  0.016227907,  -0.207347780,  -0.358248472,  -0.030616214,  0.026002681,  0.100461550,  -0.257418901,
  -0.124593660,  -0.077652827,  -0.685222447,  0.058343325,  0.080540903,  -0.027429393,  0.033100255,  -0.178588748,
  0.046833422,  -0.019346444,  0.147031561,  -0.032041568,  0.078079142,  -0.131045118,  0.136043921,  -0.169199660,
  0.008901992,  0.100195609,  -0.232033804,  0.100458600,  0.200282127,  0.092097133,  0.193929061,  -0.053261962,
  0.083500870,  0.178866968,  -0.626512706,  -0.282450736,  0.168211162,  -0.023093104,  -0.191119567,  -0.004510541,
  -0.194047287,  0.089336991,  0.041977368,  -0.065374792,  -0.009247756,  -0.127581328,  0.031453747,  -0.069080107,
  -0.066423267,  -0.113827705,  -0.038759045,  0.042323492,  -0.266622454,  0.037056576,  -0.101174705,  -0.186153382,
  -0.201835901,  -0.102480970,  -0.082668632,  0.009369347,  -0.336705118,  0.063988425,  -0.065358654,  0.031083845,
  -0.143889979,  -0.059280485,  -0.036518760,  -0.363103956,  -0.187622771,  -0.353721052,  0.096978158,  0.068359315,
  -0.191527247,  -0.188391194,  0.203663215,  -0.134874597,  0.135776281,  -0.018142398,  0.109293476,  -0.065125495,
  0.206916481,  0.105765902,  -0.089623794,  -0.642981708,  -0.529951036,  0.118802950,  -0.094776861,  -0.951896071,
  -0.197307020,  -0.266463786,  0.123329774,  -0.135397345,  0.044787019,  -3.053577423,  -0.461885571,  -0.171089500,
  -0.172293574,  0.032913823,  -0.019777337,  0.141375616,  0.049401615,  -0.007488132,  0.094382621,  -0.031840451,
  0.029077800,  0.092572473,  0.022421366,  -0.113319233,  -0.129820243,  -1.314396262,  -0.656138778,  -0.208750114,
  -0.032750577,  0.050338116,  -0.132712141,  0.093010537,  -0.795755446,  -0.072999202,  0.150527447,  -0.128593460,
  0.059802875,  -0.047133382,  0.034754448,  -0.126365587,  0.129449025,  -0.002637098,  0.000572113,  -0.169992656,
  0.024651548,  0.367547333,  -0.070310928,  0.103806846,  -0.815584123,  0.065379836,  -0.036414921,  -0.005857402,
  -0.117657408,  -0.004988327,  0.050726306,  0.000999922,  -0.196173131,  -0.031929728,  -0.023232495,  -0.162942454,
  -0.076504119,  -0.049662407,  0.170864120,  0.002243543,  0.115762234,  -0.106618769,  0.021915942,  -0.150488183,
  0.019468740,  0.002092283,  0.141910046,  -0.200922236,  0.158282891,  0.198224023,  0.030323001,  -0.235834822,
  -0.229793176,  0.081562184,  0.135217577,  -0.250869870,  0.024647502,  -1.956792116,  -0.233861998,  -0.692549348,
  -0.038717989,  0.054543860,  -0.081331193,  -0.016499508,  0.148720816,  -0.214030951,  -0.178191751,  0.286970258,
  0.100626342,  0.005150303,  0.205135018,  0.184071109,  -0.168529689,  0.079700448,  0.120399408,  -0.023537464,
  0.078931645,  -0.183441803,  -0.123234764,  0.092386529,  0.080579065,  -0.278061092,  -0.027211269,  -0.122768775,
  0.135365278,  -0.048805267,  -0.032495297,  -0.328062057,  -0.166333437,  -0.136040837,  0.046814397,  -0.140342399,
  -0.013759546,  -0.065214023,  0.082717918,  -0.070028365,  -0.296958774,  -0.021649729,  -0.208391368,  -0.059823301,
  -0.046485171,  0.108986288,  0.083488338,  0.097174726,  -0.344822228,  -0.084887803,  -0.548997879,  -0.010981753,
  0.080929689,  0.037622079,  -0.021189909,  -1.820243955,  -0.238489032,  -0.026537061,  0.035738327,  0.050929561,
  0.077421665,  0.090493664,  -0.081266381,  -0.044169091,  -0.186262324,  0.023929494,  0.009580800,  -0.182513773,
  -0.093538612,  -0.003887813,  -0.177409381,  0.242142528,  -0.016808942,  -0.270509094,  -0.198837608,  -0.034572087,
  0.026980661,  -0.015705708,  0.062789865,  -0.061287191,  0.099382930,  0.008866006,  -0.077559777,  0.093091801,
  0.074904002,  0.077856272,  -0.137510717,  0.015863748,  0.005188438,  -0.007365953,  0.093506046,  0.088223487,
  0.071185313,  -0.001866783,  0.095095523,  0.033088766,  0.039894484,  -0.525575101,  0.004997286,  0.006067606,
  0.050559558,  -0.102718741,  -0.114036940,  0.052341342,  -0.102100909,  0.084934153,  0.235225365,  -0.071356431,
  0.080098964,  -0.204380453,  -0.018290691,  0.061379768,  -0.232394487,  -0.064067811,  0.722216070,  0.048660535,
  0.039508864,  0.067774259,  0.021857196,  -0.052303620,  0.145745605,  0.031045457,  0.139941022,  -0.072948210,
  0.100759886,  -0.138656929,  0.083002709,  0.051016863,  0.037739843,  -2.155106783,  -0.056530062,  -0.055789251,
  -0.616142035,  0.069661051,  0.068162009,  0.043639701,  0.026267705,  -0.278033972,  0.033350710,  0.021538533,
  0.052027363,  0.023467284,  0.089490131,  0.067720175,  -0.161598131,  -0.237893596,  -0.066102497,  0.306878060,
  -0.092788525,  -0.339993000,  0.104687549,  0.002160483,  -0.341192305,  0.123561539,  0.018010993,  0.003256504,
  0.090923406,  0.095769413,  -0.319013715,  -0.038383003,  -0.104361355,  0.173356742,  -0.002200765,  -0.805631042,
  -0.185108021,  -0.162631571,  -0.142451957,  -0.130359903,  0.076543167,  0.116950937,  -0.155739933,  -0.439447820,
  -0.402741134,  -0.004429258,  0.028450519,  -0.068714440,  0.029069858,  0.024984948,  -0.051421609,  0.261776417,
  -0.023074271,  -0.039895218,  0.132942602,  0.020470729,  -0.051084545,  -1.156940937,  0.070434198,  -0.065965071,
  -0.747109354,  0.149364159,  -0.294307590,  -0.454068750,  0.173982516,  -0.041619968,  -0.016151505,  -0.031431809,
  -0.590698779,  -0.023039533,  -0.023873003,  -0.115719728,  -0.036261927,  -0.735655248,  0.061991107,  -0.135565296,
  0.174028412,  0.110227644,  -0.220280737,  -0.237520725,  0.016452910,  -0.029901216,  0.083380654,  0.077925742,
  -0.053890463,  -0.089241855,  0.113682657,  -0.094902292,  -0.425714880,  0.008790909,  0.041709475,  -0.034609795,
  -0.003989005,  0.065752119,  0.077850848,  -0.575877905,  0.130501539,  0.110740110,  0.061401594,  0.019474642,
  0.001695944,  -0.120569788,  -0.009830268,  0.033173755,  -0.201444805,  -0.273162901,  0.092095643,  -0.158090577,
  0.046129555,  0.027634580,  0.013146908,  0.119757250,  0.095596932,  -0.011497197,  -0.010051672,  -2.739670515,
  0.046034563,  -0.147971824,  0.264602989,  -0.124722376,  0.033327747,  0.077020384,  -0.074030370,  0.131223336,
  -0.095881544,  0.065576613,  0.127643481,  0.138280198,  -0.023688337,  -0.371417582,  -0.166680992,  -0.079910010,
  0.075842060,  -0.094480120,  0.032974988,  0.088455692,  -0.231366560,  -0.044786789,  0.083535776,  0.052529816,
  0.168840572,  0.036817502,  -0.011562799,  -0.058111563,  -0.587821066,  0.047294967,  -0.365325928,  0.018186709,
  0.049272191,  0.050322916,  -0.177620158,  0.052162834,  -0.977035165,  -0.000134493,  0.142803103,  -2.575008154,
  -0.003008200,  -0.228058323,  -0.252751142,  -0.035510913,  0.002365581,  -0.066667326,  0.089580417,  -2.209911585,
  0.026726903,  -0.022034157,  0.067717537,  0.052949034,  -0.145765960,  0.044448111,  -0.081001408,  0.069493443,
  0.027713966,  0.091278277,  -0.148778006,  -0.122187108,  -0.266202480,  -0.257865429,  0.275288731,  -0.109101377,
  0.042147934,  0.143801793,  0.104528651,  0.020256961,  -0.043797612,  0.057167266,  -0.401751190,  0.147672832,
  -0.107737981,  0.068675779,  0.099910870,  -0.007163050,  -0.200679421,  0.002494602,  -0.034441967,  0.067838728,
  0.029086910,  0.074473515,  -0.071743555,  -0.292753130,  0.053509455,  -0.065546520,  0.076824501,  0.083551787,
  0.100503378,  -0.164973333,  0.034014437,  -0.639238656,  0.013076707,  0.136865959,  -0.031038232,  -0.702020228,
  0.074974604,  -0.169984221,  -0.065033086,  0.107244737,  0.072017536,  -0.208742037,  0.035167083,  0.177370235,
  -0.140129894,  -0.123870634,  -0.053539943,  -0.002334706,  0.056566320,  -0.158013791,  0.015048606,  -0.270308971,
  0.109606467,  -0.150565863,  0.142983392,  0.146491513,  0.003595334,  -0.371462166,  -0.025332468,  0.258259952,
  -0.007104399,  -0.046894059,  -0.028293747,  0.148498654,  0.123868808,  -0.111737028,  0.020484496,  -0.032457475,
  -0.037730094,  -0.041271511,  -0.036101680,  0.025081664,  0.077144995,  -0.041035563,  -0.011666629,  -0.013766029,
  0.196271405,  0.216003165,  0.134002745,  -0.150344208,  -0.232472554,  -1.366301179,  0.085138679,  -0.089443281,
  0.049911927,  0.095015422,  0.075481184,  -0.048394103,  -0.125171632,  0.081289187,  0.152134493,  0.037627064,
  0.098404996,  -1.500610113,  -0.089573853,  -0.122622117,  0.047910303,  0.079641268,  0.082377866,  0.018837092,
  0.102602169,  0.108488932,  0.049484409,  -0.110381275,  0.037174862,  0.078040451,  -0.097578101,  0.113287203,
  0.107602693,  -0.131554171,  0.006243269,  -0.008183789,  -0.233202323,  -0.226533458,  0.070610933,  -0.002972680,
  0.095652334,  -0.191307276,  -0.019554820,  -0.056679536,  0.120409690,  0.035901770,  -0.554601133,  -0.491424918,
  -0.215329662,  0.123719811,  -0.203289509,  -0.086078130,  -0.805835187,  0.126352221,  -0.059835479,  0.036960945,
  0.039548412,  -0.172049165,  -0.100823477,  -0.493437976,  0.056478437,  0.006932889,  0.041500162,  0.007527458,
  -0.253858864,  0.085918300,  0.093844131,  -0.274585932,  -0.010733295,  0.136129230,  -0.058911476,  -0.086657889,
  0.149607524,  0.141042635,  0.000195027,  -0.102396026,  0.098045804,  -0.011986942,  0.042524513,  -0.112131856,
  -0.015950188,  0.016397677,  -0.209797844,  -0.141498327,  0.061036736,  0.062135238,  0.041937217,  0.091842212,
  -0.055298757,  -0.154106930,  0.045002867,  -0.036164440,  -0.050473299,  0.029226817,  -0.023022156,  -0.147153616,
  0.029949138,  0.035001725,  0.041473549,  0.159286514,  0.065863825,  0.069324486,  0.057618152,  0.043687493,
  -0.058602955,  -0.038867723,  -0.128818586,  0.025816368,  0.051307179,  0.166109562,  -0.729021847,  -0.042436495,
  -0.008680017,  -0.101421587,  0.078962743,  0.115682013,  0.093458340,  0.054015383,  -0.152626857,  0.081822947,
  -0.024809748,  0.011784077,  0.228347018,  0.118911199,  -0.542905927,  -0.052706689,  0.098451078,  -0.230115503,
  -0.066637307,  0.019130621,  -0.142475083,  0.074406527,  0.068149425,  -0.024910565,  -0.153073758,  0.027597889,
  -0.076463990,  0.003732628,  0.056275528,  0.045410011,  -0.020810487,  0.126780957,  0.091000937,  -0.024225255,
  0.157817245,  0.010400160,  -0.004825153,  -0.433961958,  0.026162369,  0.099646918,  0.091602549,  0.003366687,
  0.150835633,  -0.105691828,  -0.082613677,  -0.081764638,  0.007674873,  0.096422836,  0.071591809,  -0.048347790,
  -0.170082375,  -0.026546601,  -0.244052410,  -1.629499078,  0.025643809,  0.066279545,  0.016953591,  0.001141866,
  0.066446088,  -0.198091045,  -0.536666572,  0.028762167,  0.029366788,  -0.247042000,  0.030004214,  -0.096803539,
  -0.048211887,  -0.148235530,  0.012310201,  0.227927789,  0.041822441,  -2.434490204,  -0.034330703,  0.132187799,
  0.001259516,  0.057177480,  0.028127082,  0.048404016,  -0.193187192,  0.001166931,  0.068734884,  0.124454431,
  -0.036649235,  0.040220417,  0.131223112,  0.014117374,  0.064731732,  -0.702317715,  0.061181262,  -0.075999834,
  -0.015007828,  0.087181777,  -0.069148168,  0.007549609,  0.073740847,  0.079853557,  0.107484095,  0.118381709,
  0.077063464,  -0.368363112,  -0.002455672,  0.024769403,  -0.021108767,  0.099224329,  0.006361586,  -0.352459580,
  0.095105335,  -0.037255991,  0.107317731,  0.041574348,  0.121571071,  0.121168211,  0.052402854,  0.108968675,
  0.098215736,  -0.002928531,  0.021541692,  0.085721426,  0.018305857,  0.021819297,  -0.073284268,  0.071208708,
  0.043473937,  -0.056398746,  0.045944314,  -0.003917952,  -0.135317743,  0.059573215,  0.064300559,  0.152045980,
  0.022102877,  0.084091894,  0.050616000,  0.107655823,  0.002447283,  -0.610756934,  0.058892671,  -0.050046831,
  -0.072019286,  0.070316918,  -0.007586370,  0.065375879,  -0.176590830,  -0.086419277,  -0.270177424,  -0.077133335,
  0.002375474,  -0.204373047,  0.150259629,  0.011957884,  0.070298135,  -0.217820272,  0.064088121,  -0.204102725,
  0.113229871,  -0.210689247,  0.113037296,  -0.109513231,  0.070330776,  -0.033766020,  0.053492006,  -0.065297492,
  -0.080526255,  0.023717616,  0.084820241,  0.070519075,  0.045529351,  -0.106612176,  0.126338512,  0.120140426,
  -1.101775765,  0.115003511,  0.054254346,  0.054989062,  -0.010388277,  0.085302010,  -0.001355389,  -0.003679726,
  -0.078293122,  -0.059924040,  -0.160832986,  -0.165350974,  0.028812189,  -0.093948469,  0.035610966,  0.051127519,
  0.096541971,  -0.031306393,  -0.139066413,  -0.028725201,  0.088581920,  -0.118192457,  0.150332496,  0.001302910,
  0.019243924,  0.051976729,  -0.097189210,  0.052274708,  -0.019326201,  -0.016168881,  0.053389110,  0.025574196,
  -0.066246569,  -0.040374808,  0.145127729,  0.112360761,  -0.005506705,  0.012080975,  0.040050037,  0.025122849,
  0.069023393,  -0.200055763,  0.123837747,  0.138009921,  -0.135785878,  0.088827230,  -0.345929980,  0.016438672,
  -0.554633379,  -0.765891254,  -0.236916304,  -0.019019466,  -0.362532139,  -1.478163242,  -0.267478734,  -0.164134979,
  0.125343084,  0.104450613,  -0.034051888,  -0.073316626,  -0.100093067,  -0.027204333,  0.104445934,  0.018581869,
  -0.297578722,  0.038992207,  -0.315352291,  -0.062099811,  -0.557495058,  0.124741577,  0.121039219,  -0.052512702,
  -0.343639195,  -1.413678765,  -0.020463336,  0.012475618,  0.045820065,  0.022438621,  0.096553706,  0.104968712,
  -0.012120575,  -0.183917820,  0.140790284,  -0.045585241,  -0.172895625,  -0.337710947,  -0.018884413,  -0.148338199,
  0.038410101,  -0.010056769,  -1.391080499,  -0.059547741,  -0.044626705,  -0.556794226,  0.125003979,  -0.021314563,
  -0.129885256,  0.023085948,  0.145979956,  0.170826122,  0.018409740,  0.154576153,  0.084812790,  0.240032777,
  -0.174375325,  -1.896183610,  -0.027360626,  -0.676091790,  -0.023702653,  -4.713664055,  0.082786970,  0.014185179,
  -0.042918779,  0.171640649,  -0.239918798,  0.152713388,  -0.035122856,  0.053521257,  -0.341773689,  -0.044349551,
  -0.406023085,  -0.023221383,  0.110086277,  0.247593239,  0.044890784,  0.025208745,  -0.612685144,  -0.746956229,
  0.040839504,  -0.113977797,  0.057247665,  0.140646696,  -0.624922037,  0.031776633,  0.117218964,  -5.274714947,
  0.116553411,  -0.040370297,  0.174911395,  -0.544573843,  -0.040791765,  -0.000582898,  0.107036464,  0.297684342,
  -0.270750552,  0.075515084,  0.062328260,  0.195408821,  -0.238661632,  -0.166760936,  -0.024805969,  0.061790101,
  0.028105071,  0.084512159,  -0.103328377,  0.030410068,  -0.159366339,  -2.529726267,  0.248385593,  -0.127956390,
  0.084004089,  -0.111966603,  0.066716716,  0.474867970,  0.104118638,  -0.117779985,  -0.701017976,  -0.246882498,
  -0.091123469,  0.122675508,  -0.024089959,  -0.379613608,  -0.208705828,  0.075158007,  0.052414984,  0.004262764,
  -0.047116704,  -0.171479315,  -0.125450611,  0.073067002,  -0.980962753,  -0.009364583,  -0.040687174,  -0.100744776,
  -0.196554139,  0.206842303,  0.296068817,  0.190986112,  -0.043399617,  -0.664498568,  0.194191441,  -0.103461012,
  -0.096907638,  -0.630195320,  -0.129419461,  -0.204514399,  -0.115968846,  -0.033132333,  0.076767661,  -0.283134848,
  0.259770185,  -0.076992482,  -0.106139809,  0.000557767,  0.128657088,  0.040333040,  -0.057592880,  -0.016645461,
  0.033422705,  -0.040109109,  -0.434686244,  0.251370460,  -0.125712991,  0.168627337,  0.172895655,  0.033609595,
  0.068964042,  -0.513537943,  0.008007674,  0.151138410,  0.120538324,  -0.281688184,  -0.168682158,  0.050256293,
  0.109827183,  0.175821841,  -0.069527887,  0.022404617,  0.050977152,  -0.077373356,  0.163412258,  -0.156402841,
  0.177678406,  -0.329269916,  -0.157855928,  0.159863397,  -0.058463924,  -2.969758034,  -0.174700141,  -0.001779310,
  0.162618846,  0.156377077,  0.137746349,  0.087522872,  -0.097161911,  0.300404519,  0.187495574,  -0.013118742,
  0.041289862,  -0.131506070,  -0.099411890,  0.049501769,  -0.007358283,  -0.083858952,  0.207862183,  -0.182325408,
  -0.739388406,  0.157061711,  -0.153877020,  -0.026716761,  0.143157378,  -0.054471932,  -0.052534744,  0.010546829,
  0.021291761,  0.034489978,  -0.269680172,  -0.362163544,  -0.108764239,  -0.130943522,  0.006644522,  -0.108323261,
  -0.721464217,  -0.178312019,  -2.842381954,  -0.210336000,  -0.080715060,  -0.106122509,  -0.131431863,  0.141058743,
  -0.197479323,  -0.134129897,  0.053716660,  -0.146267638,  -1.551010251,  -0.044962268,  -0.159315765,  0.249586999,
  -0.357566744,  -0.271808088,  0.177648470,  -0.180733353,  0.087422498,  -1.753614068,  -0.171514094,  0.003303885,
  -0.464105368,  -0.037818737,  -0.083380178,  -0.359909207,  0.012437389,  0.079015993,  -0.629467010,  -0.233401522,
  -0.041874208,  0.011541517,  -0.198016182,  0.055091511,  0.002423057,  -0.934422791,  0.145786434,  -0.110560745,
  0.056115326,  -0.160400853,  -0.041366659,  -0.215276405,  0.064309523,  -0.031710591,  0.173412725,  -0.026874838,
  0.091508061,  -0.090676613,  0.049858250,  0.130201504,  -0.087449886,  -1.232230783,  0.068101324,  -0.082919970,
  -0.191859156,  0.106079988,  -0.052833255,  0.211015329,  0.107477605,  0.035079546,  0.067346551,  0.072170950,
  0.014367837,  -0.007044014,  0.093435399,  0.119291738,  -0.376113623,  -0.156315327,  -0.065966040,  0.068923056,
  -0.077730186,  0.027242551,  -0.749213755,  -0.229385033,  0.041740991,  0.063085385,  0.135072663,  -2.089449883,
  -0.058493219,  -0.003914822,  0.035905041,  -0.095973283,  -0.009206845,  0.058860391,  0.069567882,  -0.179190576,
  0.013618237,  0.040497217,  0.003695904,  0.009629835,  -0.078061678,  -1.538261652,  -0.021752419,  -0.315859914,
  -0.110389650,  -0.040659107,  0.043899041,  0.081536986,  0.019197455,  0.019422848,  0.151939213,  0.122155413,
  0.241625726,  -0.014879501,  -0.359321564,  0.020510439,  -2.005508900,  -0.023104383,  -0.115769990,  -0.011894912,
  0.055917509,  -0.008110962,  -0.062733375,  0.100677386,  -0.747735143,  -0.254346848,  -0.132198200,  -3.734523058,
  0.008236878,  -0.005555149,  0.064001411,  -0.198260188,  -0.055438448,  -0.065833189,  -0.110437609,  -0.101160794,
  -0.175460830,  -0.083834097,  -0.046050798,  -0.028517244,  0.069356121,  -0.011114735,  -0.082267918,  -0.070570320,
  -0.009641305,  -0.103776760,  -0.112056583,  -0.084877327,  -0.214334846,  -0.089379296,  -0.569472075,  0.018062741,
  -0.162387028,  0.103473276,  0.107235871,  0.011895579,  -0.217649400,  0.076185986,  0.075916953,  0.052993890,
  -0.139574498,  0.046281427,  -0.511696815,  0.122633435,  0.120876007,  -0.002748306,  0.060833838,  0.011194498,
  -0.058412526,  -0.088818468,  -0.151747584,  0.008147163,  0.059883270,  -0.062496513,  -0.192214265,  0.060398880,
  -0.019530516,  0.073233142,  -0.034664385,  0.110911444,  0.078799546,  0.047836997,  -0.156206325,  -0.155416444,
  -0.106077485,  0.107993886,  -0.007679296,  0.096356623,  -0.161971822,  0.053691734,  0.113025069,  -0.202241182,
  -0.753703177,  0.109652013,  -0.008429934,  0.072505459,  0.067814164,  -0.008253377,  -0.377825230,  -0.602674007,
  0.018166734,  -0.006574592,  0.131373599,  -0.400879890,  -0.006802335,  0.054377295,  0.086556710,  0.081013888,
  0.143162444,  0.079435773,  0.086497441,  0.014899583,  -0.691938221,  -0.053144678,  0.105928220,  -0.138371110,
  -0.030625999,  -0.386209935,  -0.069486968,  -0.011072055,  0.014164448,  0.024415428,  -0.031576186,  0.043619517,
  -0.312719166,  0.097498402,  -0.263561845,  0.044458687,  -0.315831453,  -1.570596933,  0.048512064,  -0.002617324,
  0.030583784,  0.121356800,  0.026233181,  -0.028951686,  0.034437999,  0.109500617,  -0.023897698,  -0.099734820,
  0.020767713,  -0.821893215,  -0.273153722,  -0.684281588,  -0.179361492,  -0.029703747,  -0.036396649,  0.089684077,
  -2.958085775,  0.100198552,  -0.974127054,  0.136698887,  0.142738298,  -0.003439834,  -0.000866156,  -0.141208649,
  0.058211125,  -0.061229147,  0.001819228,  -0.065111376,  -0.177080899,  -0.102691650,  -0.125641346,  -0.128049642,
  0.028004948,  -0.061402932,  -0.154591694,  -0.129044324,  -0.412019163,  -0.120899759,  -0.369957685,  0.023750046,
  -0.285551101,  -0.450917274,  -0.100547142,  0.076333180,  -1.761512518,  0.136552334,  -0.148975492,  0.012136845,
  0.108491413,  -0.128788903,  -0.112637512,  -0.553836763,  -0.006191619,  0.039226130,  -0.084238797,  -0.302216947,
  0.067570113,  0.154757440,  -0.166544870,  0.038867548,  0.030882839,  0.080282040,  0.096204519,  -0.116039000,
  -0.184872523,  -0.320750147,  0.061220933,  -0.087128565,  0.000473419,  0.023686085,  0.073422991,  -0.009108847,
  -0.121181250,  -0.089280941,  -0.081984423,  -0.052411720,  0.077939630,  -0.033003956,  0.129725426,  0.004698460,
  -0.222441643,  0.045518175,  -0.061478589,  0.129411504,  0.012676704,  0.042884491,  -1.047922850,  0.046594638,
  -0.187385425,  -0.026751556,  -0.134075522,  0.110609569,  -0.018413611,  -0.352372736,  0.077667043,  -0.352179199,
  -0.065282367,  -0.325730532,  -0.171131909,  -0.001824576,  0.030248100,  -0.139909133,  -0.190423101,  -0.056200441,
  -0.024930825,  -0.134221777,  -1.500384569,  0.054452278,  -0.447532654,  0.060301509,  -0.055919308,  0.040249076,
  -0.152256683,  -0.052525520,  -0.038994066,  0.044833031,  -0.362595230,  -0.091851622,  -0.064257525,  -1.293370485,
  -0.130551249,  0.129713356,  -0.165067390,  0.171055093,  0.034642227,  0.136291146,  0.026402298,  0.021242253,
  -0.171140730,  -0.082777694,  0.109298065,  0.088958539,  0.049229190,  0.137252435,  -0.005885463,  -0.533241987,
  0.107677713,  0.034574840,  -0.419606358,  0.043975648,  0.136452094,  -0.685009241,  0.113169037,  -0.147371709,
  0.089432925,  -0.114016436,  -0.049144030,  -0.494008899,  0.046521831,  0.003748472,  0.077927604,  -1.435406923,
  -2.244492531,  -0.066904128,  0.096761264,  -0.230029479,  -0.031377062,  0.069762617,  -0.769510567,  -0.044531945,
  -0.053074025,  0.043250654,  -0.542042911,  -0.042492531,  0.077985577,  -1.242449880,  -0.246014446,  -0.143712237,
  0.053097334,  -0.103465438,  0.080994710,  -0.224538669,  0.071207538,  -1.834487081,  -0.384281129,  0.082807273,
  0.096842036,  0.051552430,  -0.046084568,  -1.919874310,  -2.541582823,  -0.322944969,  0.092375420,  0.154299706,
  -0.188860103,  0.131558493,  0.111811459,  -2.658343792,  0.002313917,  0.011780180,  -1.030680656,  0.032234859,
  0.054268323,  -0.085281916,  -0.024117924,  0.043448228,  0.015058884,  -0.220817864,  0.075345896,  0.134213358,
  -0.300103545,  0.065084003,  -0.293081999,  0.060606342,  -0.384444505,  -0.470468193,  0.036975849,  0.014388742,
  -0.180023402,  0.086758405,  -0.038390305,  0.055245947,  0.072489597,  -2.920088768,  0.044022333,  -0.087900095,
  0.001071704,  -0.038658395,  0.019963410,  0.020807363,  0.035803579,  0.045897447,  -0.165730879,  0.133886367,
  0.042059030,  -0.111383557,  0.027631510,  0.060081754,  -0.131661609,  0.022707434,  -0.078187309,  -0.198442549,
  -0.479292512,  0.004279998,  -0.091938958,  0.106156059,  -0.324150711,  -0.132345632,  0.079345815,  -0.041604772,
  -0.055044450,  0.036157474,  -0.187998578,  0.088680379,  0.020740090,  0.163384542,  -0.144544065,  0.028401667,
  -0.265589356,  -0.079798825,  0.088467844,  0.105992824,  -0.109806135,  -0.042061545,  0.110717565,  -2.995377302,
  -0.568534732,  -0.088143922,  -0.280028611,  -0.082727425,  0.096265398,  -0.519224405,  0.126001403,  -0.388533801,
  0.208612233,  0.051215701,  0.079900913,  0.064032286,  0.045538116,  -0.079838850,  0.081227392,  0.093448162,
  -3.126159906,  0.044995636,  0.070036218,  -0.292633116,  0.052705359,  -0.063673235,  -0.048317969,  0.007150158,
  -0.146857962,  -0.057907000,  -0.041214667,  -0.173707709,  -0.136503786,  -0.035298090,  -0.070534222,  -0.134344235,
  0.054149162,  -0.071478069,  -2.016746998,  -0.039618351,  0.110879675,  -0.132014930,  0.151525185,  0.101053976,
  -1.196354508,  -0.010955155,  0.048403427,  0.107099667,  -0.235486791,  0.023979386,  0.090450056,  0.024123974,
  -0.020225514,  -0.169993535,  -0.509993434,  0.139559627,  -1.123410463,  0.195051432,  -0.008803156,  -0.396345526,
  0.155101523,  0.050674144,  0.036223255,  0.139064968,  0.132736400,  -0.022478582,  -3.309990883,  -0.583791494,
  0.030080911,  0.061523069,  -0.093305349,  -0.003230955,  0.097972669,  -0.007004351,  0.101284683,  0.056453276,
  0.109283760,  -0.245110512,  -0.377654165,  -0.135801390,  -0.053243246,  -0.053910661,  0.100149862,  0.076080143,
  -0.102628179,  -0.033266988,  0.080409989,  -0.054184657,  0.105419978,  0.013531309,  -0.000678506,  -0.064926252,
  0.007049769,  -0.079262659,  -0.028835243,  -0.011154574,  -0.048041768,  0.091644056,  -0.038391788,  -0.036896087,
  -0.056664173,  -0.068163224,  0.043664496,  0.048912372,  -0.232338801,  -0.006306268,  -0.256202281,  -0.073178113,
  -0.040299289,  -0.102080151,  0.112240948,  -0.210521430,  0.046961300,  0.060029224,  0.030795436,  0.038007237,
  0.141579852,  -0.045766737,  -0.496693939,  0.127528295,  0.052151386,  -0.325249195,  0.129930496,  -0.062416919,
  -0.074672997,  -0.020102672,  -0.644894719,  0.038021259,  0.076642834,  -0.230315909,  -0.037751324,  0.125591904,
  0.057501022,  0.024712646,  0.050685331,  0.034962334,  0.150405988,  -0.061447047,  0.040642068,  -0.471652299,
  0.142434388,  0.028478729,  -0.043494020,  0.086546935,  0.102895066,  0.074419253,  0.067037523,  0.074899174,
  -0.026956420,  -0.041339852,  -0.065897822,  0.026014138,  -0.214137346,  0.053974994,  0.059320536,  -1.014777064,
  -0.044769488,  -0.003842840,  0.137504801,  0.068626449,  -0.021957064,  0.070785649,  0.049529590,  0.031804722,
  0.058154192,  -0.065352641,  -0.039660461,  0.040157303,  -0.068450749,  -0.069349498,  -0.115945131,  -0.007989545,
  0.037005235,  0.048026908,  -0.142492101,  -0.040240791,  -0.027570343,  0.042814959,  -0.266869098,  0.142054185,
  0.081983261,  0.041540463,  -0.143257633,  -0.597461760,  0.018053314,  -0.035688713,  -0.023631563,  0.128901064,
  0.058104280,  0.061244007,  0.079377905,  0.039140556,  0.019362006,  -0.382636458,  -0.001841834,  -0.698577166,
  -0.079306677,  0.101422183,  -0.145190850,  0.101717837,  0.112869561,  -0.113552079,  0.086954243,  0.054440461,
  0.071298890,  0.070365235,  0.046786234,  0.099342264,  -0.104232974,  0.054255556,  0.023344915,  -0.363562226,
  0.036866069,  0.048994459,  -0.118392363,  0.067174383,  0.139417693,  -1.643338323,  0.060888898,  0.113401897,
  0.082575351,  0.018550258,  -0.055099428,  0.116938196,  0.055583823,  0.059803512,  0.010517831,  0.102948770,
  0.061152577,  0.055063829,  0.048166301,  0.023460301,  -0.068429142,  0.023690654,  0.057589430,  0.138618395,
  -0.044015769,  0.067998394,  0.024157856,  0.096434355,  0.041182745,  -0.139945865,  0.129351869,  -0.205406874,
  -0.050831400,  0.064889967,  -0.034103945,  0.063007362,  -0.029964402,  -0.542602837,  -0.182837337,  -0.084131800,
  -0.011470049,  0.183291048,  0.069159649,  0.122899055,  0.056201618,  -0.080340363,  0.005542520,  -0.080216616,
  0.000866931,  0.029493388,  0.066054605,  0.067176998,  0.115060478,  0.008852602,  0.027788332,  -0.007114979,
  -0.007140572,  0.071165696,  0.098662563,  0.098355033,  0.079594687,  -0.004718361,  -0.012995923,  0.145047873,
  -0.181556582,  0.109328404,  0.035517734,  -0.103656262,  0.021741314,  -0.118255652,  -0.003047140,  -0.084540062,
  -0.064409301,  -0.111982144,  -0.051092926,  -0.244778946,  0.054878879,  0.025555871,  -0.497388721,  0.069363765,
  0.072761655,  -0.107908852,  -0.217316344,  -0.045673639,  0.041754246,  0.073415123,  -0.115783907,  0.040635835,
  0.026845152,  0.063053377,  0.017149363,  0.036003999,  -1.113725543,  -0.034067318,  0.060752295,  0.106990173,
  -1.469937086,  0.068014845,  -0.001078940,  0.065876760,  -0.036322087,  -0.183699846,  0.045039710,  0.001076141,
  0.107014000,  -0.322961241,  -0.078526735,  0.131585211,  -0.129786313,  0.101100303,  0.142762914,  0.000760876,
  -0.271812052,  -1.804971099,  -0.045194745,  -0.131484240,  -0.281183302,  0.008709045,  -0.419885039,  -0.038872469,
  -0.914069116,  -0.126376286,  -0.321888834,  -0.118602842,  -0.559304416,  -0.106393918,  -0.200138524,  -0.037966140,
  -0.061938543,  -0.055909250,  -0.161519438,  -0.172112033,  -0.546157420,  -0.247519627,  -0.175063685,  -0.137085646,
  0.107844017,  -5.462200642,  0.073749334,  -0.134728029,  -1.894199014,  -0.443642646,  0.034618523,  -0.055397399,
  -0.121674530,  -0.189074665,  0.090356812,  0.005779969,  -3.506531000,  0.075845107,  -0.078104191,  -0.012718705,
  -0.033829853,  -0.150132507,  -0.003665378,  -0.108158305,  -2.900979996,  -0.270661265,  -0.077353999,  -1.082461953,
  -0.070493899,  0.017660117,  -0.445529938,  -0.631710947,  -0.233218431,  -0.261218399,  -0.055336140,  -1.323032498,
  -0.194256634,  -0.644731224,  -1.050026536,  -0.479336649,  -0.137582287,  -0.120791972,  -0.084998727,  -0.041462403,
  -0.145041093,  -0.161016464,  -1.940372348,  -0.461880356,  -0.034793776,  -0.069570355,  -0.124110997,  -1.872091055,
  -3.393647432,  -0.393911839,  -2.142637968,  -0.159729734,  -1.559545159,  -0.203377932,  -0.292156458,  -1.113673925,
  -2.178072214,  0.058131725,  0.005040403,  0.039609622,  -1.209828496,  -0.098459922,  -0.139511138,  -0.879438818,
  -0.118953027,  0.108719669,  -0.029013079,  -0.219209656,  -0.042229850,  -1.458802581,  -0.092965782,  -0.478049099,
  -0.370924920,  -0.047486484,  -0.036989700,  -1.993270993,  0.115281790,  -0.129314110,  0.064656183,  0.002376017,
  -0.173269466,  -0.111955203,  -0.064045109,  -0.139642417,  -0.207179204,  -1.385097265,  -3.022162914,  -0.179435804,
  -0.367647916,  -0.295306027,  0.046725485,  0.046318419,  0.009176870,  -1.809424639,  -0.274079263,  -0.419601262,
  -0.081275679,  -0.382694721,  -0.594952583,  -1.778943419,  -0.304005295,  -0.518905640,  0.055093952,  -0.079871833,
  0.032497097,  -0.244732365,  -0.124050774,  -0.796505272,  -1.565395355,  -0.018540535,  -0.676247060,  -0.793898940,
  -0.439027995,  -0.069826744,  -1.409404755,  -1.348732114,  -0.173795298,  -0.404361933,  0.004852735,  -0.015653286,
  -0.090070464,  -0.211121321,  0.068484180,  -0.539209306,  -0.132259533,  -0.087049492,  -0.276192486,  -1.608619928,
  -0.555325985,  -0.113207147,  -0.138288543,  -0.358688772,  -0.125319481,  -0.078119025,  -0.021044154,  -0.104905516,
  -0.233520254,  0.080628581,  -0.347080052,  -0.194627210,  0.040991019,  -0.193254635,  -0.111062132,  -0.282611340,
  -0.042841606,  -1.569369316,  -0.163894966,  -0.318414688,  -2.329731941,  0.072978191,  -0.214191481,  -0.178319633,
  0.106599040,  -0.223505542,  0.103734970,  -3.737039089,  -1.957938313,  -0.504629552,  -0.228052601,  -0.121667296,
  -0.148204818,  -0.143898383,  -0.072445109,  0.041208751,  -0.666176736,  -1.027710080,  0.109989651,  -0.093379349,
  -0.254187971,  -0.033725839,  -0.369300395,  0.083765835,  -3.072332621,  -0.788173735,  -0.405465543,  -0.021064537,
  -0.107257307,  -0.562411666,  -0.002719390,  -0.731351018,  -0.757792532,  -0.074269399,  -0.265136868,  -0.398798883,
  -1.577738881,  -0.272022396,  -0.044174239,  -0.148027867,  -0.491950333,  -0.145251766,  0.040722743,  -0.350324780,
  0.028749797,  -0.023955364,  0.095272928,  -0.334548116,  -0.285154283,  -3.106056213,  -0.217387199,  -0.281403244,
  -0.653371632,  0.018742798,  -0.962452531,  -0.034184538,  -1.554445505,  -0.114190117,  -0.349272430,  -2.205844164,
  -0.273644686,  -0.564438879,  -0.242104799,  -0.181935430,  -0.046429582,  0.037828866,  -0.009355584,  -0.272099555,
  -2.394626617,  0.021315144,  -0.307624698,  -0.562245548,  -0.113141418,  -0.118960515,  -0.259306341,  -0.263210744,
  -0.123376034,  -0.245600358,  0.045403283,  -0.515970469,  -0.226977468,  -0.064478315,  -0.251618862,  0.063220322,
  -0.155271187,  0.174067482,  -0.098214611,  -0.087456696,  -0.109594561,  -0.486623526,  0.077657819,  -0.149920091,
  -0.047034483,  -0.061056681,  -0.390538722,  -0.118499100,  -0.024752829,  -0.039603721,  -0.160371006,  0.018232355,
  -0.086765751,  -0.066562273,  -0.125364542,  -0.088700019,  -0.900916636,  -0.034748469,  0.075810164,  0.056427486,
  -0.230622962,  0.127844214,  -0.205135107,  -0.335080802,  -0.019391933,  0.060635325,  -0.088635378,  0.007422770,
  0.008792169,  -0.316288739,  -0.170078099,  -0.003081618,  0.274017155,  -0.458628714,  -0.387436748,  -0.062859148,
  -0.144859657,  -0.016802885,  -0.390062243,  0.093560562,  0.001354196,  -0.111053109,  -0.661730230,  -1.293434620,
  0.049551874,  -0.071238548,  -0.045153521,  0.088378109,  -0.095618539,  -0.074044742,  0.010987147,  -0.450776547,
  -0.051011220,  -0.099349856,  0.128119946,  0.060637880,  -0.110693879,  -3.465481520,  -0.130886480,  0.071098000,
  0.077547953,  -0.289220870,  -0.008954110,  -0.054108862,  0.056657255,  0.097317219,  -0.179074705,  0.218101129,
  -0.156947866,  -0.555906296,  0.000430644,  -0.658151746,  -0.062386625,  -0.060828187,  -0.323362231,  0.128200993,
  0.032710917,  -0.014218730,  0.097271495,  -0.496694356,  0.122445285,  0.406292588,  -0.321904808,  -2.014464378,
  -0.252893686,  -0.210612431,  -0.124754667,  -0.143907174,  0.093414187,  -3.420251846,  0.118952259,  -0.129144564,
  -0.968680680,  -0.102640070,  0.134637356,  0.140128672,  -0.063157409,  0.049953945,  -0.293913960,  -0.089444019,
  -0.066121653,  -0.070120692,  -0.049515966,  -0.880692363,  0.152313292,  -2.467879772,  0.143630937,  -0.174141079,
  -0.273937702,  0.157865539,  -0.045478281,  0.390882909,  -4.485685349,  0.199521795,  0.001602455,  -0.013759550,
  -0.041587323,  -0.428876281,  0.004119568,  -0.229209661,  0.061642241,  -0.251565784,  -0.173613623,  -0.047896970,
  -0.073743559,  -1.403622508,  -0.024589863,  -0.291909039,  0.075524978,  -0.131913796,  0.051717233,  -0.059692807,
  0.140757874,  -0.307473093,  0.117948495,  -0.073805675,  0.039352655,  0.069826871,  -0.318007171,  -0.254527479,
  0.014625966,  0.054402206,  0.099047922,  -0.292687684,  0.074865073,  -0.010668803,  -0.092836007,  -0.272559524,
  0.068444975,  0.119337857,  0.016925080,  -0.024192078,  -0.038746130,  0.061747275,  -0.021968115,  0.076690271,
  0.108160168,  -0.073298760,  0.076475628,  -0.321063161,  -0.098309606,  -0.073780291,  -0.192378208,  0.085510023,
  -0.141223818,  0.061193813,  -0.273956478,  -0.198100016,  -0.119537883,  -0.053613361,  -0.678188503,  0.046485711,
  -0.062995076,  -0.124338470,  -0.174033999,  -0.077368937,  0.137493238,  -0.102503866,  -0.122362643,  -0.034893859,
  -0.067268878,  -0.196377560,  0.075226158,  -0.847452521,  -0.123695955,  -4.435847759,  0.026834324,  0.029620128,
  -0.302727818,  -0.256633550,  0.087076992,  0.078200988,  0.197399706,  -2.724194288,  0.112629414,  -0.745654881,
  -0.020365883,  0.026769390,  -0.069545306,  0.144916460,  0.124665603,  0.097886428,  -0.084541813,  -0.200896457,
  -0.108377486,  -0.109688409,  0.123852372,  -0.008069318,  -0.216900885,  0.003079221,  -0.040511120,  -0.044254959,
  0.087795906,  0.010584177,  -0.164029241,  -0.321925342,  -0.130498469,  -0.090018213,  -0.413316190,  -0.339176327,
  -1.839128375,  0.086994641,  0.006067765,  -0.205976576,  -0.667769432,  -0.025803717,  -0.743401647,  -0.399764270,
  -1.210415721,  0.050884027,  -0.190060169,  -0.240283579,  -1.457105756,  -0.079874985,  0.042229403,  -0.015830010,
  -3.290828466,  -0.016624220,  -0.058030441,  -0.018891484,  -0.044325069,  0.174929872,  0.041479945,  -0.016705636,
  -0.060279723,  -0.699834526,  -0.033397328,  0.023776729,  -0.649861217,  -0.056329712,  -0.047154844,  -0.103135593,
  -0.462486565,  -0.196071669,  0.130409777,  -0.101370692,  -0.245276541,  -0.142677829,  -0.492240638,  0.018623918,
  -0.132217437,  0.094895735,  -0.122434862,  -0.053752206,  -0.028010871,  -0.092948563,  0.112041309,  -0.013322562,
  0.061392244,  -0.050360557,  -0.054960951,  -0.022275710,  -0.047137216,  0.043636885,  0.060692400,  -0.063927904,
  -0.165613607,  0.074941099,  0.004587031,  0.038212344,  -0.258779794,  0.086652637,  -0.036419276,  0.036067799,
  0.078551747,  -0.066564232,  0.156867787,  0.069157325,  0.198438272,  0.081975877,  0.102926716,  -0.019018853,
  -0.067492500,  -0.108717471,  0.018545395,  0.112719327,  -0.006017497,  -0.011402851,  0.164956868,  0.049309570,
  0.009899003,  0.088190988,  -0.116986193,  0.112018593,  0.010704173,  0.107479319,  0.082865030,  -0.344022363,
  -0.022984574,  0.006108304,  0.063499592,  0.112469196,  0.030660985,  -1.624440670,  -0.029401202,  0.076842375,
  -0.085263811,  -0.004890651,  0.086251110,  0.054940090,  -0.032287087,  -0.096513830,  0.019050559,  0.016828440,
  -0.490698814,  -0.023096589,  -0.065750688,  -0.009237954,  -0.117096595,  0.050216969,  0.155566201,  0.056992870,
  -0.409286410,  -0.057577495,  -0.155164301,  0.100267351,  0.120181426,  0.148999304,  0.076966450,  0.057713084,
  -0.228140444,  -0.219759032,  0.085556634,  0.074037723,  0.020243151,  0.041853305,  0.074480109,  0.057797581,
  -0.132504091,  -0.243356615,  0.059656747,  -0.207052737,  0.026172066,  -0.023094146,  -0.129957855,  0.087322183,
  0.029077405,  0.002146259,  0.067481861,  0.054910529,  -0.124915868,  -0.306312233,  0.128690019,  0.048889033,
  0.004252599,  -0.525238693,  -0.168852851,  0.166297957,  0.073354460,  0.130583897,  -0.495321989,  0.120597817,
  -0.158030704,  0.027374059,  0.124820784,  -0.114007682,  0.005618668,  0.060845245,  0.079270191,  0.150767595,
  -0.091024801,  0.050584119,  -0.133384258,  -0.005709764,  -0.025866484,  -0.070972592,  0.143133357,  -0.086189136,
  -0.196060330,  0.032187834,  0.038325425,  -0.416754305,  -0.192376822,  -0.003709841,  0.046069834,  -0.271476477,
  0.017610051,  -0.140379757,  -0.048364911,  0.072223634,  -0.003153319,  0.018998366,  -0.102695808,  0.146421984,
  0.117478862,  0.086870611,  0.055123858,  -0.537522376,  0.035153128,  -0.038514096,  0.122554183,  0.066528015,
  0.075728111,  -0.094312057,  -0.507048190,  0.064237803,  0.073114119,  0.102996819,  0.071807168,  0.055628836,
  0.062524341,  0.078859054,  0.000589689,  0.091381043,  -0.013541739,  0.141001865,  0.093369871,  0.052882373,
  0.093060948,  0.031466987,  -0.051583618,  -0.412755221,  0.111341305,  -0.066637404,  0.010980326,  0.063815176,
  0.115393266,  0.006384437,  -0.163661018,  0.028899798,  0.009478917,  0.033533704,  -0.070910692,  0.131700844,
  -0.194706127,  0.012799269,  0.073631652,  -0.127829522,  -0.171027839,  -0.366565913,  0.027381562,  -0.001627342,
  -0.016472634,  0.035929982,  0.094650127,  0.087872021,  0.015451646,  -0.044647962,  0.084751353,  -0.318279535,
  -0.078893587,  0.179630443,  0.076876394,  0.050145734,  0.086286418,  -0.017140312,  -0.064343974,  0.099581242,
  0.075616822,  -0.063783728,  -0.162567571,  0.056526773,  -0.030010860,  0.153871298,  -0.098134898,  0.064059921,
  0.136276513,  -0.002206353,  0.101510048,  0.008392794,  0.080446385,  0.084047638,  -0.086707145,  -0.046156749,
  -0.047599550,  -0.202593490,  -0.006801600,  -0.049108148,  -0.768259168,  -0.049480051,  -0.080295265,  0.135756433,
  0.023604281,  -0.199408174,  0.146614492,  0.091116138,  -0.141970068,  -0.175144836,  -0.098101109,  0.096646823,
  0.148187980,  -0.302345663,  -0.067318663,  0.129777610,  0.046885621,  0.129019797,  0.063324086,  0.016540414,
  -0.047987923,  -0.234172702,  -0.165378526,  -0.044528354,  -0.027655605,  -0.973273933,  -1.120883822,  -0.154959068,
  -0.050867781,  -0.041977562,  -0.085384145,  -0.016629497,  -0.025435163,  0.028820029,  -0.084746301,  0.009638200,
  -0.055752236,  -0.136144683,  0.224463820,  -0.023778474,  -0.133123502,  -0.132001504,  0.007294985,  -0.001273943,
  -0.263854384,  -0.022554172,  0.010485915,  0.106446899,  -0.020710757,  0.165148973,  -0.048367579,  0.021688212,
  -0.155525208,  -0.030935166,  0.019030614,  -0.057809211,  -0.082080439,  0.088305317,  0.000029749,  -0.220607221,
  -0.005706923,  -0.228585467,  -0.090088576,  -0.217291459,  -0.113567546,  0.010802358,  -0.095365301,  -0.361673951,
  0.033878990,  0.027237078,  0.154038578,  0.111493967,  -0.068900391,  -0.296583772,  0.048062492,  0.087557070,
  0.105144076,  -0.505165219,  -0.186707854,  0.211839229,  0.048129316,  0.065556169,  -0.071787976,  0.100373156,
  -0.084775709,  0.119290613,  0.019156236,  -0.304314584,  -0.176468223,  0.088645451,  -0.056032978,  0.235831633,
  0.233409941,  -1.201646924,  -0.270114094,  0.142619163,  0.234181330,  0.061811011,  -0.075041868,  0.014555496,
  0.033720315,  -0.050552905,  -0.068621159,  0.012417681,  -0.023933608,  -0.042506348,  -0.104864150,  -3.780003548,
  0.059825994,  -0.051590100,  -0.047564812,  0.000684920,  0.095539212,  -1.868361712,  -0.146065503,  -0.080453828,
  0.199891672,  -0.159842581,  0.015454100,  -0.289612472,  0.018475516,  0.095735058,  -0.169394761,  -0.111483805,
  -0.262649417,  0.111987986,  -0.066346057,  0.124307171,  0.027499069,  0.046995487,  0.183412462,  -0.395063490,
  0.085886613,  -0.192508847,  0.094713770,  0.117173895,  -0.096826613,  -0.363293886,  -0.113439426,  -0.018029584,
  -0.345872790,  -0.396161199,  0.135296658,  -2.409501791,  -0.033026937,  -0.024038913,  0.065404005,  -0.217813239,
  -0.104604527,  -0.008956451,  -0.128126413,  -0.022901868,  0.074195117,  -0.036561929,  0.039793923,  -0.099540561,
  -0.003779693,  0.046156634,  0.092730820,  -0.431066215,  -0.018731281,  -0.678974628,  0.066588625,  -0.162983343,
  0.060301077,  -0.286360353,  -0.146107137,  0.164001226,  -0.168842494,  -0.042929485,  0.095948972,  0.094075367,
  -0.299226314,  -0.036867574,  0.033431463,  -0.149057478,  0.058337945,  -0.169536799,  -0.069301344,  -0.000574539,
  -0.129395619,  -0.150517300,  -4.281575680,  0.023794957,  -0.031556755,  0.069388442,  -0.043996081,  0.066895202,
  -0.109583780,  -0.299224526,  0.017111761,  -0.228341982,  0.075734548,  -0.006884810,  -2.364309311,  -0.234307289,
  0.040235601,  -0.103099950,  -0.122766964,  0.027030673,  -0.259741724,  0.083916418,  -0.156569898,  -0.145862520,
  -0.230493426,  -0.110734560,  -0.009641626,  0.054520555,  -0.108817533,  -1.700928807,  -0.000202898,  -0.012943106,
  -0.091590576,  0.026648644,  0.110032514,  0.013654326,  0.159089491,  0.103295736,  0.016829621,  0.100784712,
  -0.456630468,  -0.511711180,  0.012299878,  0.055801515,  -0.280813128,  0.003841192,  0.049275327,  -0.173371479,
  0.148014635,  -0.119291611,  -0.164663509,  -0.020711055,  0.023820886,  0.133868068,  -0.028106615,  0.017899599,
  -0.048192404,  -0.096851334,  0.081873305,  -0.047580115,  -0.232091099,  -0.095387198,  0.097889125,  -0.243813485,
  -0.529929876,  -0.134231806,  0.029885618,  -0.234254688,  -0.058007278,  0.025125582,  -0.013422587,  -0.007810996,
  0.011738957,  0.158953086,  -0.115151636,  0.084390379,  -1.667097926,  0.126781568,  0.059607469,  -0.933780313,
  0.122522749,  -0.217937991,  -0.120368212,  -0.263859749,  0.078311466,  -2.710866213,  0.004302244,  0.137119874,
  -3.353314161,  -0.032752663,  0.105887488,  -0.024125246,  0.007821165,  -0.018016854,  0.101883568,  0.153956950,
  -0.295814842,  0.143574849,  -0.052575652,  -0.087151118,  -0.076573029,  -0.280966491,  0.174435660,  -0.080795690,
  -0.127041355,  0.034737751,  -0.052233830,  0.003517266,  -0.063305900,  0.058064889,  0.061367888,  0.000717750,
  0.016056506,  -0.085696906,  0.032308068,  -0.155394316,  0.023122026,  0.048627861,  0.052992467,  -0.081515729,
  0.051196951,  0.096555665,  0.088937812,  -0.013777599,  0.030235019,  0.108122207,  0.012760780,  0.031112289,
  -0.134965837,  0.109473862,  -0.011140557,  0.055985920,  -0.207727075,  0.061021507,  0.110912673,  -0.089095317,
  0.000400391,  -0.214893490,  -1.275921226,  0.063405722,  -0.073156446,  0.039431240,  -0.127395898,  -0.032631122,
  -0.036727190,  -0.026783470,  -0.015775755,  -0.169023603,  0.070073783,  0.094236255,  0.004014832,  0.136207253,
  0.013009434,  -0.158536226,  0.094246142,  0.154625416,  0.064637020,  -2.256374598,  -0.011670808,  0.225598156,
  0.080049239,  -0.151236847,  0.062573925,  0.087003715,  -0.191171139,  0.069704264,  0.013708387,  0.019861259,
  0.162980393,  -0.094848856,  0.197811604,  0.039173920,  0.016552409,  0.052153539,  0.144215927,  -0.025842445,
  0.135434940,  0.060144302,  -0.065294892,  0.044203673,  -0.177981749,  0.027017970,  -0.024621081,  0.090711147,
  -0.003716400,  -0.110756129,  -0.032673154,  -0.006549215,  -0.110959001,  -0.003674252,  0.086836986,  -0.074303612,
  0.098014429,  -0.046769887,  0.085988745,  -0.064090706,  -0.237776637,  0.081681706,  0.044190854,  -0.128720507,
  -0.003146169,  -0.718161106,  -0.117923707,  0.070655815,  -0.237645701,  -0.251497388,  0.265030950,  -1.497705221,
  -0.347312748,  0.115126714,  -0.008961894,  0.014998457,  0.150051266,  0.125337556,  -0.038035784,  -0.066227689,
  0.130206063,  0.017159080,  -0.225845143,  -1.023660064,  -0.100549243,  0.021360006,  0.072276846,  0.080910698,
  0.067602284,  -0.058213893,  -0.233656079,  0.004344406,  0.010147273,  -0.013982866,  0.003531139,  -0.827832937,
  0.042220116,  0.001632177,  0.104442269,  -0.337556571,  -0.009178363,  -0.161943942,  0.087579630,  -0.156094432,
  0.121997409,  -0.824787319,  -0.000950015,  0.115623549,  0.105650239,  0.020223666,  -0.259058326,  0.172097370,
  -0.055989318,  0.107529067,  0.054360770,  0.007505977,  -0.044145580,  -0.156520247,  0.089767426,  0.074661702,
  0.027348325,  0.085400827,  -0.057770472,  -0.145915344,  -0.004047947,  0.116036192,  0.043797322,  -0.652080357,
  0.030998766,  -0.046313412,  0.066620164,  -0.521290481,  0.104756787,  0.153855309,  -0.373085767,  0.002154483,
  -0.088244267,  0.044029135,  -0.113695689,  0.178317294,  0.119951852,  0.104974411,  0.071766280,  0.004122990,
  0.112158261,  0.029463273,  0.151454717,  -0.014707904,  0.049406484,  -0.211212873,  -0.027914835,  -0.005476094,
  -0.045572661,  0.038713489,  -0.188161179,  0.080457330,  -0.048471395,  0.065699458,  -0.004415709,  -0.002934609,
  0.026393253,  -1.070464849,  0.071295567,  0.042977296,  -0.015714554,  0.118358344,  0.055463459,  -0.051333334,
  0.116971605,  -0.139388144,  0.084495187,  -0.131689638,  0.063183159,  -0.205599204,  -0.134229258,  -1.412719965,
  -0.156870767,  0.014570093,  -0.014246758,  -0.054637346,  0.024434404,  -0.308320463,  0.083940297,  -0.443121672,
  0.037769027,  -0.193874881,  0.077045925,  -0.043252319,  0.076656245,  0.062910721,  -0.169723958,  0.219776988,
  -0.105070055,  0.090933815,  -0.463280588,  0.096658617,  -1.493086576,  -0.097938836,  -0.094212331,  -0.389297843,
  0.071416244,  -0.141969532,  0.030091941,  -0.369824708,  0.044788372,  -0.268563390,  0.033810161,  0.003327444,
  0.116293855,  -0.267029285,  0.046520069,  0.145248324,  -0.496878594,  0.038932525,  0.040459204,  -0.001168022,
  0.135993212,  0.077244736,  -0.126988515,  -0.011865569,  0.074088946,  -0.057022780,  -0.004897399,  -0.121976763,
  0.146591946,  0.068161249,  -0.717262924,  -0.031088877,  0.028500957,  0.065703809,  -0.044616375,  0.120519474,
  -0.962829351,  -0.040455841,  0.024548493,  -0.030299626,  0.099914178,  0.016501907,  0.008160779,  -0.151955500,
  -0.116984293,  -0.615321040,  -0.079023965,  0.002401673,  0.096486025,  0.080900170,  0.012810051,  -0.019482207,
  0.036130577,  -0.140308052,  -0.137088045,  0.016863577,  0.093500644,  -0.177591950,  -0.011610091,  -0.041919123,
  -0.036421858,  -0.029346894,  0.090241522,  -0.804515243,  0.170637384,  0.045701250,  -0.836517036,  -0.027500192,
  -0.115383551,  -0.047035526,  -0.059884429,  0.084814869,  -0.248990700,  0.047442436,  0.093346231,  -0.176198825,
  0.056794804,  0.191220209,  0.184357017,  -0.003931817,  0.035628229,  -0.226383790,  -0.069332495,  0.053807218,
  0.022331625,  0.021956434,  0.153467759,  0.002295034,  0.022814719,  0.035875741,  0.034745194,  -0.078409992,
  0.122250393,  0.098885775,  -0.040391166,  -0.077628449,  -0.014669177,  0.050988063,  0.070519283,  0.153685197,
  0.051576030,  -0.190253168,  0.008691705,  0.009447966,  0.096391059,  0.016693790,  0.155291483,  -0.048154455,
  -0.160704061,  -0.126141950,  0.115528867,  0.057091329,  0.104682818,  -0.025612630,  -0.019952405,  0.011613701,
  0.058563765,  -0.076744765,  0.134529576,  -0.005802227,  -0.153926820,  -0.109993935,  -0.025202496,  0.048069667,
  0.017475622,  -0.014497661,  -0.099836208,  -1.916765213,  0.093718611,  -3.235944748,  0.059860159,  0.124509543,
  0.106098771,  -0.004304048,  0.087458014,  0.432873487,  -0.559715211,  -0.075215302,  0.174241632,  0.155121014,
  -0.143138051,  0.053090055,  0.125274852,  -0.067059547,  -0.035665181,  -0.028620098,  0.025396761,  0.199914560,
  -0.104877844,  0.010899708,  0.019345572,  0.169932917,  0.040440556,  -0.200847417,  0.092295155,  0.031703100,
  -0.000107880,  0.065194517,  0.085426778,  0.058320776,  -0.076632224,  -0.309877306,  0.030054793,  0.115901463,
  0.130896807,  0.066432223,  -0.071821563,  0.057736695,  -0.118445806,  0.289114326,  -0.269621342,  0.095018268,
  0.087138750,  -0.145978466,  -0.116272911,  0.049555309,  0.084949471,  0.121736251,  -0.228022307,  -0.000299270,
  -0.264439166,  -0.049597226,  0.058826283,  0.066518597,  0.029720508,  0.114129007,  0.016884623,  0.170006111,
  -0.573083460,  0.109679982,  0.017426621,  0.093336105,  -0.021684868,  -0.778908312,  -0.384173483,  -0.220745847,
  -0.093360916,  0.095250748,  -0.054656006,  0.097787365,  -0.065315165,  0.097044714,  0.036229588,  -0.023583338,
  -0.078052647,  0.172905475,  0.033084057,  0.071109898,  0.110812023,  0.091418959,  -0.021360956,  -0.879366577,
  -0.099067509,  -0.425888181,  -0.063478321,  0.073095828,  0.083957784,  0.258680701,  0.074072815,  -0.332818687,
  0.103285976,  -0.016173404,  0.127105102,  0.074979097,  0.121317931,  0.021382403,  0.061475758,  -0.431756675,
  -0.185991600,  0.062319547,  -0.025567999,  0.012999131,  0.054221544,  0.003676936,  -0.171101302,  -0.157495603,
  -0.120944306,  -0.101148166,  -0.056765985,  -0.292447031,  -0.092073806,  0.119186901,  -0.024789110,  0.083134145,
  0.070045695,  -0.077125899,  -3.145407677,  -0.177712619,  0.040853713,  -0.121387035,  0.158505484,  0.005333022,
  0.043715291,  -0.007835019,  -0.009393544,  0.044226360,  -0.082372233,  -0.004925231,  -0.005070355,  0.019913031,
  -0.155994847,  -0.033173986,  -0.058699369,  0.128478244,  0.072750933,  -0.593244791,  0.089624166,  -0.138336822,
  0.025464244,  -0.159659788,  -0.136010855,  0.115189426,  -0.247676641,  -0.003361774,  -0.261559337,  0.033544675,
  0.268965811,  -0.219961539,  0.035675503,  -0.051337682,  0.143534660,  -2.305292845,  -0.200720161,  -0.062300865,
  -0.068295494,  0.008442297,  -0.284485310,  -0.272876859,  -0.098936453,  0.083753787,  -0.046447013,  0.067754723,
  0.190288961,  -0.174426392,  -0.635402739,  -0.011390068,  0.184942380,  -0.080966771,  0.029507888,  -0.156801373,
  -0.096396148,  -0.196966469,  -0.060826566,  -0.820731044,  0.256823421,  -0.612905383,  -0.106635742,  -0.169570982,
  -0.048303314,  -0.271383196,  0.062829055,  -0.006099348,  -0.299291402,  0.075021341,  -0.020873575,  -0.069495656,
  -0.136994168,  -0.016915593,  -0.077620521,  0.164211690,  -0.875293136,  0.095612563,  0.043484416,  -0.254565835,
  -0.021219881,  -0.079082429,  -0.050465927,  -0.013304222,  -0.075433291,  0.111203752,  0.256480247,  -0.209755644,
  0.028548114,  0.178463534,  -0.161566600,  -1.174657106,  -0.028699292,  -2.244529486,  0.018559208,  -0.046969198,
  -0.002370902,  -0.123542204,  -0.095770247,  -0.242889419,  0.071531072,  0.054551885,  0.137180373,  -0.098118961,
  0.115757525,  -0.742991030,  -3.635995626,  0.058214460,  0.055737477,  -0.011966065,  0.093545333,  -0.396878868,
  -0.175666422,  -0.296122998,  -0.100939624,  -0.078052156,  0.105858646,  0.155397490,  0.125227377,  -0.170687035,
  -0.044967379,  0.041631494,  0.049748503,  0.149962544,  -0.100609429,  -0.274980187,  0.122746669,  -0.119432829,
  0.078655273,  -0.050602682,  0.073395595,  -0.084753580,  -0.194607735,  -0.040938638,  -0.190729618,  0.008792585,
  -0.021795662,  -0.000338491,  -0.110684060,  -0.089673199,  -0.085285634,  -0.111494631,  0.018757034,  0.155851960,
  0.014249356,  0.079604171,  -0.164050356,  0.042312872,  0.100833826,  -0.080551080,  -0.014004457,  -0.034691725,
  -0.251810193,  -2.981569052,  0.054321051,  -7.470040798,  -0.018827749,  -0.174161628,  0.110636503,  0.263578832,
  -0.134542435,  0.035522621,  -0.257565528,  -0.203389898,  0.011533167,  -0.017570956,  -0.191165581,  0.012622642,
  0.022691278,  -0.039446332,  -0.024440765,  -1.867415190,  -0.276021600,  -0.004460996,  -0.228471443,  0.080767684,
  -0.178264499,  -0.102479495,  -0.162340164,  -0.053895526,  0.141111270,  -0.052334178,  0.080492981,  0.129352301,
  0.010293964,  -0.105257295,  0.036213119,  -0.324101239,  -0.130297005,  -0.033291124,  0.065228231,  -0.080353394,
  -0.083808139,  -0.039233722,  -0.194776714,  0.023446999,  0.046556711,  -0.097788468,  -0.031791534,  -0.075413309,
  0.058744825,  0.126451120,  -0.173048213,  -0.301437706,  -0.047475807,  0.103178628,  -0.163083389,  0.089262195,
  -0.091684096,  0.097344041,  -0.223776594,  0.051234793,  -0.284821242,  0.004462612,  -0.126731545,  -0.143659234,
  -0.093563281,  0.130465925,  -0.043144949,  -0.610800505,  0.121871538,  -2.422904253,  -0.179639772,  -0.046349429,
  -0.039606854,  0.068144165,  -0.593382955,  -0.108194515,  0.055031415,  0.053925358,  -0.211785242,  0.045117427,
  -0.067400478,  -0.218707129,  -0.225757852,  0.054444909,  0.073531538,  -0.027235115,  -0.017663011,  0.013095210,
  -0.263367414,  -0.377698720,  -0.004271962,  -0.020512402,  0.102606490,  -0.296351403,  -0.118863560,  -0.119590603,
  -0.101286210,  0.026542198,  -0.145632505,  -0.308216244,  -0.110900953,  0.193659231,  0.077071145,  0.046925355,
  -0.135318711,  0.010396323,  -0.468337953,  -0.132450491,  0.126942083,  0.086752929,  0.203868136,  0.260467708,
  0.097899936,  -0.016208107,  -0.025172045,  -0.212212443,  -0.693627059,  -0.007870806,  0.010075872,  -0.218069524,
  0.236851230,  -0.022180118,  0.126131013,  -0.014835539,  0.061960321,  -1.798931241,  -0.025118308,  -0.214835897,
  -0.432140440,  -0.020155000,  0.137380049,  0.127574652,  0.175692677,  -0.061468825,  -0.162729204,  -0.426956892,
  -0.151480421,  -0.196926355,  -0.139402062,  -0.037834194,  -0.152995691,  -0.581983030,  0.111557938,  -0.158570945,
  0.085836090,  -0.149816692,  -0.413847059,  0.077505961,  -0.399109870,  -1.098185778,  -0.096487269,  -2.769092321,
  -0.224394530,  0.018429436,  0.188352808,  -0.151374564,  -0.187239528,  -0.129021898,  -0.334298700,  -0.172433019,
  -0.036223702,  -1.001470804,  -0.039515708,  0.191005945,  -1.422290444,  -0.155267537,  -0.155102700,  -0.174308002,
  0.040394939,  -0.028330913,  -0.130585283,  0.070954554,  -0.149210185,  0.142951131,  -0.138765112,  0.028116340,
  -0.016381497,  -0.140998527,  -1.097203970,  -0.802443326,  -0.148721039,  -0.408487588,  -0.214516804,  -0.087463692,
  -0.082635082,  -0.067570470,  0.303941935,  0.048228085,  -0.130481020,  0.017390009,  -0.075956531,  0.377274871,
  -0.226571858,  0.256684899,  -0.152894706,  0.048945073,  -1.966455817,  -0.727554739,  0.001341273,  -1.234750748,
  -0.069956563,  -0.346430361,  -0.068443000,  0.058386296,  0.046915427,  -0.132644460,  -0.457682759,  -7.822823524,
  -0.209668994,  0.027061068,  0.009651550,  0.088158689,  -0.015885513,  -0.316299260,  -0.166384697,  -0.071650527,
  -0.027018851,  0.040520817,  -0.212263599,  -0.049067680,  0.005289934,  -1.853937626,  -1.105037212,  -1.833182931,
  -0.691925704,  -0.240693495,  -0.360881060,  -0.174721912,  -0.128229246,  -0.082332380,  -0.173789382,  0.024555322,
  -0.009585953,  -0.053749233,  -0.154228702,  -0.171527147,  0.059231102,  -0.097370759,  0.035483479,  0.028861864,
  0.094669156,  -0.343675226,  0.104837053,  -0.425222725,  -0.405845165,  -1.654681444,  -0.528272748,  0.058270000,
  -0.004749333,  -0.395226777,  -0.113244414,  -1.297034144,  -2.611495256,  -0.314616948,  0.052745774,  0.053179339,
  0.005764375,  0.010879463,  -0.263106644,  0.176664218,  -0.332430422,  -1.062601209,  -1.259178162,  -0.416006356,
  0.083975904,  -0.399954408,  -0.201715723,  -0.085525610,  0.034691241,  -0.127882183,  -0.530015469,  0.229924709,
  0.168467924,  -0.204165384,  -0.329246283,  -1.119631529,  0.099096537,  0.127771229,  -0.490693986,  -0.162785679,
  -0.092060655,  0.104940556,  0.027412051,  -0.076840729,  -0.096106455,  -0.218285128,  -0.044803947,  -0.121567696,
  -0.264743596,  0.073993765,  -0.023436423,  -0.313177943,  -0.377853692,  0.035767056,  -0.214800104,  -0.032538485,
  0.111006156,  0.121803112,  0.044069145,  -0.581248999,  0.104366735,  -0.097954325,  -0.660945952,  -0.217654511,
  -0.389950752,  -0.276306987,  -2.987224579,  -0.509675920,  -0.911947548,  -0.068098359,  0.244157657,  -0.338354439,
  -0.149060994,  -0.366599470,  -0.030781643,  -0.010432304,  0.216744378,  -0.416180283,  0.203533098,  0.037217077,
  -0.514150858,  -0.826227903,  0.217228293,  -0.805345595,  -0.277975947,  -2.628306389,  0.115177646,  -0.182826966,
  -0.569580436,  -0.096327588,  -0.210479707,  0.036353353,  0.003865273,  -3.425432205,  0.081670500,  -0.377632707,
  -0.065325148,  0.244479254,  0.013954281,  -0.009528669,  0.014537520,  0.057596613,  -1.066184044,  -0.012261658,
  0.372539639,  -0.437878668,  -0.004662666,  0.095832862,  -3.320187330,  0.108960107,  0.037662491,  -0.756949484,
  -0.002573088,  0.035146117,  -0.065084212,  -0.124170840,  -0.376762658,  0.163322046,  -0.361552179,  -2.063892841,
  -1.811468601,  -0.144475639,  -2.296811342,  -0.234227017,  -1.658553720,  0.011048993,  -0.151461616,  -2.490380287,
  0.139335901,  -0.881594241,  0.036854867,  0.087853186,  -0.054820552,  0.091208592,  0.042737775,  0.063031472,
  0.177143425,  -0.172991395,  -0.448551774,  0.131008908,  -0.525766551,  -0.682853818,  -0.051199798,  -0.184687018,
  -0.823121607,  -0.017281953,  -0.294123143,  -0.160443559,  0.018992404,  -0.244056866,  -0.156721324,  -0.186953932,
  -0.006897495,  -0.298125446,  -0.033087667,  -0.069396637,  0.084032007,  -0.043275483,  0.042194750,  -0.186670572,
  -1.876404881,  0.031248484,  -0.067243613,  0.005886958,  0.076973327,  0.062176600,  0.134943038,  0.049030460,
  0.111626409,  -0.041151896,  0.011196673,  -0.003380611,  0.041892409,  0.030242473,  0.057238013,  -0.054601796,
  -0.192170963,  -0.195474997,  -0.080605641,  -0.261424363,  -0.042788830,  -0.071006499,  -0.021730635,  0.010321528,
  0.052005980,  -0.084626414,  0.020999823,  0.173723891,  0.177527934,  0.160318911,  0.068847634,  -0.090603091,
  0.005530928,  -0.236654490,  -0.015802817,  0.006846788,  -0.274984688,  0.078837529,  0.081361875,  0.099960811,
  0.040386956,  0.026260268,  0.078635260,  -0.128103703,  0.104449235,  0.072535217,  0.135302588,  0.028190902,
  -0.098737232,  0.141398326,  0.050535291,  -0.218432769,  0.056680959,  -0.238700718,  -0.011894744,  0.021794641,
  0.074492067,  0.019895125,  0.051231660,  0.000719939,  -0.003761319,  -0.003648131,  0.127299652,  0.092361912,
  0.160867378,  -0.021450756,  -0.580236495,  -0.049155917,  -0.485803246,  0.055817716,  0.159347698,  -0.017586153,
  -0.235251531,  -0.292756587,  -0.008981319,  0.135491535,  -0.183597594,  0.031830467,  0.003632205,  -0.196110591,
  0.061252266,  0.065683439,  0.094585150,  0.119933441,  -0.048717014,  0.145285830,  -0.032401435,  -0.029548524,
  -0.123296134,  -0.230791345,  0.119916953,  -0.085183255,  -0.079139441,  0.199028179,  -0.115970850,  0.096792378,
  -0.004382701,  0.112557881,  0.062312804,  0.075709783,  0.046439815,  0.109850571,  0.046215869,  0.126904398,
  0.029220827,  0.018711913,  -0.122535065,  0.146888584,  0.029589418,  0.010752286,  0.023152294,  -0.363057822,
  -0.053786427,  -0.019588575,  -0.385463506,  -2.956150293,  -0.209452122,  0.015299827,  0.001256265,  0.028247867,
  -0.222743034,  0.081170402,  -0.051373120,  0.025202552,  -0.794360518,  -0.056751993,  0.095608145,  -0.021529533,
  -0.110565089,  -0.013686992,  -0.083710708,  0.094522327,  0.095319413,  -0.115510061,  0.037146553,  -0.700587809,
  0.001190249,  -0.124901377,  -0.112486355,  0.092387423,  -0.041660905,  -0.187813088,  0.008657821,  0.120623074,
  -0.147305414,  -0.091582797,  -0.047695115,  0.049616087,  0.053516030,  -0.013648315,  0.025599480,  0.079408914,
  -0.062113885,  0.126292154,  -0.148076341,  0.020076381,  -0.062273003,  0.059699230,  0.053607233,  0.055132143,
  0.127436414,  0.016963329,  0.069410443,  0.100918241,  -0.022437867,  0.088847503,  -0.274152696,  -0.080818310,
  -0.106218018,  0.035784796,  0.039063565,  -0.372731417,  0.123173326,  0.107302472,  0.057420362,  -0.011862476,
  0.035744760,  0.073319174,  0.128656417,  0.047528699,  0.022060957,  0.033229560,  0.086931080,  0.062950917,
  0.161113009,  0.065179855,  0.026343316,  -0.135582685,  -0.219253063,  0.127664581,  -0.131572291,  0.021042641,
  0.084612504,  -0.043967277,  0.099446356,  -0.311544329,  -0.324968487,  -0.108128302,  0.076221846,  0.118752755,
  0.052493151,  -0.016570352,  -0.041644275,  -0.046854634,  0.066015989,  0.014385738,  -0.048552167,  -0.050212495,
  -0.001825002,  -0.163649827,  -0.221689016,  -0.052842818,  -0.072698109,  0.040612966,  0.004476968,  0.083895445,
  0.096229143,  0.016923299,  0.113860123,  0.009455254,  0.090038627,  -0.104772881,  0.165907040,  -0.042450283,
  0.018933300,  -0.004466684,  -0.100751005,  0.058319256,  -0.117607802,  0.032059032,  -0.019596936,  0.041478448,
  0.184035301,  -0.073531888,  -0.336074591,  -0.028160203,  0.021234648,  -0.242765427,  -0.135526568,  -0.079942964,
  -0.226761684,  -0.006839740,  -0.070450127,  0.032115888,  0.014101055,  0.063234664,  0.033590760,  0.041797504,
  -0.011036428,  -0.569995761,  -0.118895724,  0.043117087,  0.129777417,  -0.072246969,  -0.030571999,  -0.168765545,
  -0.151901349,  0.012915879,  -0.029649286,  -0.118852466,  0.133055091,  0.089503072,  0.092654385,  0.171131685,
  -0.084437691,  0.051744107,  0.145745754,  0.124345399,  -0.011423197,  0.018687233,  0.031656329,  -0.128041133,
  -0.136370793,  0.052504651,  -0.163548440,  0.146988124,  0.010158345,  -0.105320156,  0.011619482,  0.039514177,
  -0.109602846,  -0.134692520,  0.049514491,  -0.213131398,  0.189340413,  0.035831839,  -0.008750515,  -0.140095919,
  0.068379439,  0.106477439,  -0.011778258,  0.100120462,  -0.038118303,  0.002351979,  0.165447176,  0.058619767,
  -0.113280430,  -0.083588101,  -0.146262392,  0.124812506,  0.018918773,  0.026814250,  0.016401365,  0.134450912,
  -0.130170599,  -0.007501485,  0.096916564,  0.102994703,  0.018987307,  -2.045302391,  0.002441995,  -2.054279566,
  -0.012874368,  -0.096146561,  0.101192087,  0.061012760,  0.036215909,  -0.132250383,  0.123257272,  -0.151201487,
  -0.287413478,  0.075919017,  -0.062893830,  -0.031986389,  0.054078013,  0.089180566,  -0.922183394,  -0.114108101,
  0.236301899,  0.022334410,  -0.093800724,  0.010974216,  -0.225164175,  -0.014532855,  -0.157617271,  0.057281438,
  0.159097716,  -0.133115754,  0.035357624,  -0.110399321,  0.053554296,  0.022068867,  0.055576697,  -0.045996204,
  -0.410842091,  -0.133735314,  0.052637000,  0.085869797,  -0.001386885,  0.043613803,  -0.059432991,  -0.025477579,
  0.037219718,  0.050813831,  0.070852593,  -0.044483908,  0.125648707,  0.026073862,  -0.421062410,  -0.202493325,
  0.012784360,  -0.000557047,  -0.051594470,  -1.076250792,  0.094116367,  0.050304428,  0.084191605,  0.059717026,
  -0.023786040,  -0.048542589,  0.068587512,  -0.108101465,  0.107691444,  -0.012381675,  0.062146123,  0.159496814,
  0.073032238,  0.067662418,  -0.145781800,  0.080988213,  -0.007592536,  -0.006345803,  -0.114969470,  0.013662589,
  -0.375792921,  -0.061153382,  0.096389763,  -0.579938471,  0.039560594,  0.061851013,  0.045094401,  0.026607526,
  0.085643858,  0.004631287,  0.134505540,  0.125300750,  0.085364833,  0.086832017,  0.048913669,  0.103482753,
  -0.172245950,  -0.092084303,  -0.067372896,  -0.365115881,  -0.368476748,  -0.030562216,  -0.024685502,  0.003210925,
  0.030314734,  0.049828872,  0.049266148,  0.026116604,  0.060476907,  0.071283236,  -0.069951266,  -0.151950747,
  -0.005430368,  0.080864727,  -0.173236296,  -0.108239435,  0.159801841,  0.044776138,  0.115648590,  0.072061941,
  -0.035889231,  -0.023282344,  0.013010975,  0.105128750,  -0.079646163,  0.119944043,  0.037602350,  0.078208946,
  0.019171188,  0.040289391,  0.177776739,  -0.012782117,  -0.128193498,  0.266232163,  -0.049179967,  0.019579101,
  0.005464407,  0.076699786,  0.173745707,  -0.025721725,  -0.002230969,  -0.115401715,  0.101460688,  -0.013638626,
  0.056109693,  -0.006270328,  -0.292852253,  -0.009583566,  0.059502892,  0.061550707,  0.037512299,  0.172841325,
  -0.039277118,  -1.366346955,  0.045697570,  -0.091718599,  0.000189396,  0.212284639,  -0.039755959,  0.084213078,
  -0.060291126,  -0.172147050,  -0.079019405,  0.010829427,  -0.179275706,  -0.395820200,  -0.004525348,  -0.206817597,
  0.056668017,  -0.096783936,  -0.245889261,  -0.024430452,  -0.040858932,  -0.064841889,  0.115881920,  -0.134803891,
  0.095780246,  -0.733493686,  0.128597185,  0.160997435,  -0.393780738,  -0.022977905,  0.011068624,  -0.241914496,
  0.074914582,  -0.188395426,  0.134192258,  0.082147367,  0.068760291,  -0.007397822,  -0.091505423,  -0.477993906,
  -0.513474882,  0.211860970,  -0.107105449,  -0.772628665,  -0.166243613,  0.043798994,  0.081933267,  0.006739795,
  0.005779553,  -0.042375840,  -0.020551842,  -0.001492931,  0.030026576,  -1.919160843,  0.032230914,  0.003814081,
  0.029205672,  0.039857130,  -0.324340641,  -0.057495102,  -0.002888537,  -0.007176574,  -0.137504980,  0.102576070,
  0.116809867,  -0.113542609,  0.083576880,  0.097325899,  0.095825158,  0.076662935,  0.027777044,  -0.121707492,
  -0.272896618,  0.015373207,  -0.194439515,  0.031073401,  -0.070174433,  0.053782757,  -0.073974863,  0.048672099,
  0.096604660,  -0.126761019,  0.064746760,  0.074639678,  -0.135769337,  0.137891203,  0.131735936,  -0.059957974,
  0.048724066,  -0.159187704,  -1.477055073,  -0.056872778,  0.093904488,  0.050106112,  -0.649029553,  0.001073665,
  0.007054107,  -0.115067862,  -0.060517035,  0.122719780,  -0.045115523,  -0.038079541,  0.170401797,  -0.219306856,
  -0.021279342,  0.011225096,  0.009535686,  0.047784142,  -0.048800185,  -0.527931452,  -0.229843855,  -0.210838452,
  0.080679215,  0.031821921,  0.013477984,  0.080514595,  -0.081670351,  0.084281027,  -0.081907019,  0.099971786,
  -0.132417291,  0.070127197,  -0.151388317,  -0.027093314,  0.176382244,  -0.159121633,  0.014366155,  0.101920106,
  -0.007019290,  0.029431840,  -0.003250570,  0.002840857,  0.059568357,  0.060588457,  0.063014902,  -0.052433111,
  0.084629491,  -0.089822866,  0.084325559,  0.030857885,  0.057803236,  -0.069957271,  0.058806948,  -0.023254063,
  -0.489127755,  -0.054794207,  0.146905392,  -0.090497293,  0.002677898,  -0.008917043,  -0.190992072,  0.117081597,
  0.048969172,  -0.196352765,  -0.076831892,  0.051540084,  0.031461481,  0.084782913,  -0.023647143,  0.092402227,
  0.122529149,  0.126318544,  -0.123562135,  0.066136919,  -0.069735363,  0.111829102,  0.080735728,  0.160484836,
  -0.082840830,  0.052900683,  0.103163064,  0.184731677,  0.118842140,  0.056744531,  0.059556160,  -0.038770091,
  -0.253959507,  -0.447670013,  -0.135141492,  0.000725911,  0.105582669,  0.011859980,  0.036652483,  0.183729187,
  0.039808534,  -0.185669512,  0.064990081,  0.105026394,  0.103457525,  -0.028912006,  0.003238573,  0.083861172,
  -0.180541232,  0.053064115,  0.031283576,  0.087144740,  0.060234893,  0.000714156,  -0.001097327,  -0.238358796,
  -0.168521762,  0.037772547,  0.109109871,  0.088924766,  0.027596159,  0.084669702,  -0.049598183,  0.129656032,
  0.067121677,  0.119961672,  0.137625888,  -0.525504708,  -0.098318495,  0.103672035,  0.050932117,  0.112577185,
  0.036008358,  -0.266636908,  -0.002774646,  0.062169947,  -0.442905366,  0.172157958,  0.034575164,  -0.126612097,
  -0.022352507,  0.068894140,  0.058361035,  -0.033242963,  0.129243985,  0.096909501,  -0.144333929,  0.009188900,
  -0.211553097,  0.054356601,  0.091834873,  0.027022369,  0.105487369,  -2.612797499,  -0.016919820,  -0.075204499,
  -0.026013026,  0.086583704,  0.061174452,  -0.041010942,  0.035669826,  0.067437053,  0.063606903,  -0.712340951,
  0.063450776,  -0.005221198,  0.188880384,  0.076454520,  0.104094498,  0.062369991,  0.023844125,  0.028268306,
  0.104353078,  0.122075573,  -0.023956141,  0.114800289,  -0.102300026,  -0.176712021,  0.060064822,  -0.074027821,
  -0.026692832,  -0.050933301,  0.038251098,  -0.105145670,  -0.027910167,  -0.291292042,  -0.191375017,  0.035259224,
  -0.233169720,  -0.199039668,  0.106531970,  -0.102430537,  0.030315042,  -0.230427578,  0.041725673,  -0.114733353,
  -0.706380010,  -0.141220123,  -0.044259720,  0.069434606,  -0.289974213,  -0.076356918,  0.086728878,  0.119015947,
  0.012562840,  -0.106062576,  -0.231516421,  0.056164563,  -0.082652636,  0.078577198,  0.064653702,  -0.030411571,
  0.111470647,  -0.082531013,  -0.044243444,  -0.572862566,  -0.347345024,  0.082953334,  -0.006878519,  -0.027450444,
  0.066108584,  0.004264843,  0.029729892,  -0.013457826,  0.023194529,  -0.198056817,  0.070519269,  -0.120500065,
  0.118834771,  -0.106928706,  -0.282879025,  0.084396169,  0.101565026,  0.002231130,  0.072125189,  -0.012666225,
  -0.009552344,  -0.045732435,  -0.106363587,  -0.126367956,  0.196016654,  0.081748188,  0.028629405,  -0.093452312,
  -0.172760084,  -1.588670492,  -0.079340681,  0.265700638,  0.090642720,  -0.038804054,  -0.120661832,  -0.229307875,
  0.040298469,  -0.162089154,  -0.016011095,  0.117641360,  -0.040415831,  0.124854028,  0.054228146,  -0.135066599,
  0.068583906,  0.104187526,  -0.318864882,  -0.372004628,  -0.112201981,  0.038095791,  -0.377061188,  -0.013599066,
  -0.026691748,  0.004628384,  -0.292333692,  0.041777845,  -0.203600943,  -0.829102993,  -0.054037366,  0.223021671,
  -0.004511647,  -0.469801188,  -0.495302558,  0.105508596,  0.069467008,  -0.049788307,  -0.016798310,  0.006178570,
  0.006548803,  0.063155718,  -1.458395720,  -0.045529712,  -0.148102075,  0.117381334,  0.103843279,  -0.984650552,
  0.097834401,  -0.227587745,  -0.161270753,  0.162243292,  0.084806800,  -0.114668585,  0.080582097,  -0.009930102,
  0.046301223,  0.040654503,  -0.117093153,  0.047474068,  -0.138638899,  -0.199716300,  0.092848971,  -3.091307402,
  -0.106667444,  0.015810866,  -0.050823096,  0.037385456,  0.111692645,  0.003084740,  0.022915373,  -0.013540605,
  0.105591692,  -0.070243075,  0.029541612,  -0.036547929,  0.111140437,  0.106847428,  -0.257556915,  0.124619357,
  -0.026771640,  0.011930827,  -0.130510986,  -0.291427493,  -0.549489498,  -3.006409168,  0.144520819,  0.106130376,
  -0.135310531,  0.041667033,  0.080373794,  0.200368732,  -1.341327667,  -0.943769634,  -0.056982812,  0.069548920,
  -0.242597610,  0.025198838,  0.026842512,  -0.117642425,  -0.173839673,  -0.017548876,  0.053040024,  -2.227385521,
  -0.103193820,  -0.071455017,  -0.150336102,  0.059707381,  0.077583440,  -0.225002840,  0.015455815,  0.062496230,
  0.059054956,  0.101943024,  -0.137865677,  -0.048487578,  -0.117761858,  -0.345266283,  0.064905666,  -0.122036979,
  0.057518654,  0.112929799,  0.108023278,  -0.030851293,  -0.036701899,  -0.665277719,  -0.625784814,  -0.485164106,
  0.081834242,  -0.105645292,  0.015951015,  0.000973989,  0.041678935,  -0.056917962,  0.068627566,  0.087191984,
  -0.471689671,  -0.071981035,  -0.162075341,  0.018644063,  -0.059124183,  0.055872288,  0.069316022,  0.072089672,
  -0.619129360,  0.105519913,  0.004823605,  0.083416075,  -0.198707655,  0.082001552,  0.007050162,  -0.414259255,
  -0.072081082,  -0.020150049,  -0.011320604,  -0.035378952,  -0.002592742,  0.101167299,  -0.411529064,  -0.057114407,
  -0.712879360,  -0.388124108,  -0.060561217,  0.113183282,  0.043503225,  0.150459781,  -0.034284253,  0.144282296,
  -0.384635121,  0.110557459,  0.014446855,  -0.101817720,  0.065498456,  0.080738924,  -0.008946655,  -0.295677453,
  -1.522018313,  0.060568634,  0.111111283,  0.060669214,  -0.038444884,  0.011774311,  -0.027049204,  0.142164066,
  0.044208061,  0.112908393,  0.108868740,  -0.042955235,  0.039473582,  0.004170331,  -0.087382406,  0.145664304,
  -0.111102276,  -0.214291945,  -0.000016864,  -0.095057115,  -0.090796992,  0.029314687,  0.047919091,  0.028094454,
  0.023469066,  -0.156335220,  -0.935392916,  -0.009192700,  -0.749241650,  0.004290736,  0.084116265,  0.004922014,
  0.061909933,  0.028130021,  0.022383694,  0.114712372,  -0.868105114,  -0.110359475,  0.040838912,  -0.000345308,
  -0.513234079,  -0.082669392,  0.081903756,  0.119291142,  -0.124994509,  -0.003501237,  0.068469368,  0.128704041,
  0.100889370,  -0.140055075,  -0.125454411,  0.126337960,  -0.037921067,  0.031775162,  -0.149748921,  -0.041664887,
  0.058682036,  0.159930646,  0.002200129,  0.083018355,  0.008730505,  -0.465419888,  -0.487852365,  -0.021749210,
  0.004322544,  -0.047934324,  -0.428593785,  0.014749745,  0.194986179,  0.109295301,  -0.061141748,  0.023591256,
  0.100179628,  -0.057324030,  -0.099952027,  -0.148428738,  -0.303074181,  -0.006190730,  -0.066154785,  -0.076868400,
  0.052333459,  -0.110017017,  -0.051173974,  0.015850715,  -0.559153974,  0.053438574,  0.003752769,  0.043698702,
  0.087471984,  -0.067265257,  0.115655407,  -0.055242844,  0.029245231,  -0.038274128,  0.111919515,  -0.104537010,
  0.114912517,  -0.154797450,  -0.021734770,  0.041897912,  0.064693220,  0.119468465,  -0.044481248,  0.009927006,
  0.068900228,  -0.160515562,  -0.312763780,  -0.484408855,  -0.072887354,  -0.014184269,  -0.168760642,  0.071169801,
  -0.061524943,  -0.108376540,  0.045337941,  -0.076231740,  0.038424022,  0.174503326,  0.014042230,  -0.303635240,
  0.096928932,  0.006509784,  0.128116980,  -0.265388399,  -0.134613931,  0.010295736,  0.110342115,  -0.413653821,
  -0.446198583,  -0.302991122,  0.005170277,  0.168572918,  -0.337711722,  -0.069858015,  -1.379753470,  0.065590493,
  0.050446831,  -0.055341203,  -0.126333326,  0.003843663,  -0.361257881,  -0.430941463,  -0.016462848,  -2.047283411,
  0.028882926,  0.091365300,  0.098776400,  0.149025321,  -0.138091549,  0.148682252,  0.075922601,  -0.245632574,
  -0.160034090,  -0.097321279,  0.011165941,  -0.195007339,  0.094972931,  -0.015242381,  -0.079621837,  -0.034657914,
  -0.002562389,  -0.114883862,  -0.004271973,  -0.157449692,  -0.087757789,  -2.641573429,  0.055534765,  -0.364398837,
  -0.236945197,  0.005188900,  -0.109352082,  -1.622949481,  -0.083815448,  -0.022897985,  -0.493414015,  0.154209211,
  0.044139244,  -0.014519973,  -0.289941281,  -2.277740002,  -0.066898547,  0.006441693,  -0.045826517,  -0.087285861,
  -0.252969325,  0.033364855,  -0.134434432,  0.055831347,  0.030891811,  -0.003816308,  -0.359638393,  -0.061707508,
  -0.079369612,  0.041694816,  -0.037833799,  -0.082113340,  -0.058835950,  -0.311816931,  -0.015911493,  0.183866084,
  0.101548627,  -0.139460713,  -0.076780610,  -0.284672022,  -0.056484625,  0.102263100,  -0.223612249,  -0.250065833,
  -0.589293838,  0.042699285,  0.087262243,  0.059412602,  -0.078394815,  -0.416169375,  -0.047684878,  0.018542392,
  0.059129491,  -0.183225468,  -2.283742666,  -0.836255491,  -0.103504829,  0.162864834,  -0.251581699,  0.136065036,
  -0.027322797,  -0.073903270,  -0.229968682,  -0.594799638,  -0.372343957,  0.062070582,  -1.161050320,  -0.065072186,
  -0.107714497,  0.008096866,  -0.146561727,  -0.047235813,  0.112350024,  -0.005337708,  -0.034663837,  -0.166428119,
  -0.024295771,  0.031016169,  0.072911017,  0.138007671,  -0.239010185,  -1.766488910,  -0.068791442,  0.079153091,
  -0.311825842,  -0.045439653,  -0.037165835,  0.050825085,  -0.511654735,  -0.156274050,  -0.270151168,  0.065774068,
  0.060116008,  -1.004320145,  0.059513807,  -0.074625351,  -0.914678752,  -0.100270264,  0.061759155,  -0.011967482,
  -0.102170959,  -0.016296223,  0.114144489,  0.058837980,  -0.107034296,  0.030831367,  -0.080421850,  -0.439506382,
  -0.165657565,  -0.086589180,  0.052680358,  -0.179222688,  -0.085394353,  -0.279428214,  0.048469678,  0.218000039,
  0.252365351,  -0.173513189,  -0.125084400,  -0.266152322,  -0.544043779,  -0.073240951,  -0.015981872,  -0.442741007,
  0.040219124,  -0.002208796,  -0.149089456,  0.083493248,  -0.332222134,  0.053033113,  -0.004620471,  0.107911237,
  0.045660645,  -0.378328919,  -0.133667096,  -3.503839970,  -0.053107902,  -1.852750778,  0.134178430,  0.063180327,
  0.273911655,  -0.162444964,  -0.064283043,  0.059586905,  -0.196572602,  0.081034042,  -0.113007754,  0.098329999,
  -0.108969577,  0.093110606,  -0.098084599,  -0.194182053,  0.115663245,  -2.368731260,  -0.236642331,  -0.239090830,
  -1.120721221,  -0.007970696,  -0.103748463,  0.028593164,  0.092589095,  -0.252893478,  0.027208371,  -0.465218633,
  -0.074651971,  0.089994572,  0.001780804,  -0.110079318,  -0.135051608,  0.066678919,  -0.174939558,  0.038460508,
  -0.123759449,  0.129882187,  0.033860750,  0.307430178,  -0.103273198,  -0.459967732,  0.027216854,  -0.101215169,
  -0.155135989,  -0.067135416,  0.114102244,  -0.074224353,  0.060269319,  0.073514186,  -0.089013979,  -0.002545748,
  -0.141298190,  -0.212152898,  0.060931180,  -0.055393413,  -0.901489615,  -0.194559723,  0.125878051,  0.191454709,
  -0.071940266,  -0.031301051,  0.141633987,  -0.290948123,  0.110128351,  0.096359909,  -0.220722184,  0.101633511,
  -0.178160280,  -0.118171953,  -0.386980861,  -2.236457109,  -0.014489471,  0.186055303,  -0.049767662,  -0.038431443,
